<?xml version="1.0"?>
<opencv_storage>
<HOGTugas type_id="opencv-object-detector-hog">
  <winSize>
    296 144</winSize>
  <blockSize>
    16 16</blockSize>
  <blockStride>
    8 8</blockStride>
  <cellSize>
    8 8</cellSize>
  <nbins>9</nbins>
  <derivAperture>1</derivAperture>
  <winSigma>4.</winSigma>
  <histogramNormType>0</histogramNormType>
  <L2HysThreshold>2.0000000000000001e-01</L2HysThreshold>
  <gammaCorrection>1</gammaCorrection>
  <nlevels>64</nlevels>
  <signedGradient>0</signedGradient>
  <SVMDetector>
    4.93559695e-04 1.89667320e-04 -3.37532908e-03 4.38944669e-04
    7.37567106e-03 3.92964156e-03 -1.27272611e-03 -1.63550663e-03
    -1.08836801e-03 2.58247205e-03 1.78653252e-04 -2.07394944e-03
    -3.02974950e-04 -3.28594702e-03 1.23569975e-03 -9.80955316e-04
    -4.19511460e-04 1.62858993e-03 -6.08794950e-03 -1.36004179e-03
    -3.95326596e-03 1.17186306e-03 5.72713604e-03 2.03078054e-03
    -3.71908024e-03 -9.93860653e-04 -5.23531577e-03 -7.65259610e-03
    -4.83334856e-03 -6.70564175e-03 -5.24411909e-04 4.03411407e-03
    4.31332970e-03 -8.17471009e-05 1.03588251e-03 -3.04455892e-03
    1.40480569e-03 1.71912950e-03 -2.42283382e-03 -8.46176699e-04
    -2.95083364e-03 1.98482187e-03 -2.09353026e-03 8.94065539e-04
    1.52063195e-03 -2.88218260e-03 -6.83560327e-04 -3.22955102e-03
    -8.65953007e-06 7.51722418e-03 2.94487039e-03 -1.01709738e-03
    1.06551195e-03 -3.38573079e-03 -3.57794296e-03 -1.67153764e-03
    -4.44354024e-03 5.76632621e-04 1.23016897e-03 5.29762730e-03
    -9.47228866e-04 -9.93744607e-07 -2.88556702e-03 -5.89528121e-03
    -1.94237378e-04 -4.29314212e-04 2.75497301e-03 1.30100725e-02
    4.76117712e-03 -1.48769002e-03 -2.80044653e-04 -6.13315497e-03
    -2.13476364e-03 1.99862152e-05 1.97105668e-03 1.58267119e-03
    5.54569764e-03 4.39664489e-03 9.97220632e-04 -7.47803308e-04
    -3.00302217e-03 -2.27023638e-03 1.07374752e-03 3.37294396e-03
    5.30976395e-04 1.03501929e-03 3.38928495e-03 -1.53561006e-03
    -7.54412031e-04 -3.00882780e-03 -2.58889305e-03 1.48457941e-03
    4.51946352e-03 4.87666437e-03 6.67533511e-03 6.49848254e-03
    -1.14546076e-03 -1.76323578e-03 -4.50087758e-03 -5.08779613e-03
    -2.79348996e-03 2.17503239e-03 1.34320173e-03 -5.47694275e-03
    7.08601112e-03 -1.59089663e-03 -1.02709106e-03 -4.99314116e-03
    -6.21312531e-04 2.38688127e-03 1.27066160e-03 1.50428212e-03
    7.36155687e-03 6.03294559e-03 -4.46713821e-04 -2.20083049e-04
    -1.97311351e-03 8.71048949e-04 4.08861274e-03 -8.96146812e-05
    2.10214453e-03 -3.24624329e-04 6.11851178e-03 6.19330560e-04
    1.58612884e-03 -1.39688409e-03 -5.36747836e-03 -1.74443587e-03
    -2.00547534e-03 -1.18435104e-03 3.24076856e-03 9.40104574e-03
    -1.34435704e-03 -1.57898664e-03 -5.09320432e-03 -5.59202349e-03
    2.98871135e-04 -1.15943234e-03 3.47820134e-03 -1.92999782e-03
    6.07980089e-03 4.58959228e-04 -2.88508600e-03 -4.85376315e-03
    -1.92822365e-03 3.20059713e-04 -1.91997294e-03 1.10838015e-03
    1.39725406e-03 5.98124089e-03 2.16530543e-03 2.58106715e-03
    -6.07060560e-04 -1.70731649e-03 5.52464509e-04 2.60595814e-03
    2.33147480e-03 3.98964807e-03 3.56983021e-03 2.34631216e-03
    2.19979347e-03 -4.51934757e-04 -1.08471308e-02 -1.90387468e-03
    -1.82423473e-03 3.67508829e-03 6.18176907e-03 5.12247114e-03
    1.45088346e-03 -9.63648141e-04 -8.37899465e-03 -7.51423510e-03
    -1.48053700e-03 1.60489301e-03 6.85427047e-04 4.47585573e-03
    2.53851665e-03 1.91589887e-03 -1.57206465e-04 -7.70894345e-03
    -2.55241455e-03 -2.10368817e-05 2.27882201e-03 1.80416566e-03
    4.94530005e-03 2.48702383e-03 2.37369025e-03 3.36184021e-04
    -4.69560083e-03 -1.85313250e-03 4.88792488e-04 3.18715419e-03
    3.76962894e-03 5.40559599e-03 3.18637071e-03 1.38167839e-03
    -7.88644189e-04 -6.10317104e-03 -3.84879857e-03 -3.40234628e-03
    8.09816818e-04 1.64616707e-04 3.19180987e-03 -1.31695671e-03
    -1.95776345e-04 1.20325992e-03 -4.90648439e-03 -2.91839149e-03
    -3.30183469e-03 -4.76222165e-04 1.02748978e-03 2.63104821e-03
    1.84189249e-03 -1.25092280e-03 -1.56839134e-03 -4.14276076e-03
    4.63023578e-04 2.39615305e-03 4.25898656e-03 2.84323306e-03
    5.49036125e-03 1.85809901e-03 3.19939712e-03 3.22559872e-03
    -1.72108773e-03 -4.83585463e-05 3.73667432e-03 5.08700451e-03
    1.24661182e-03 1.98758789e-03 -4.28454689e-04 2.82025500e-03
    4.05378640e-03 -6.01523730e-04 -5.64530585e-03 7.74684595e-04
    1.98370474e-03 8.51317833e-04 3.92206060e-03 2.89896643e-03
    1.12703128e-04 -7.38382398e-04 -7.00412737e-03 -7.75612937e-03
    7.88120029e-04 5.36636566e-04 -1.38965379e-05 -2.73793424e-03
    -4.38327203e-03 -1.21996575e-03 -4.51374892e-03 -1.14334160e-02
    1.77517286e-04 3.67746479e-03 4.95793903e-03 1.79795199e-03
    2.87817954e-03 -1.91196264e-03 9.68906796e-04 2.62456201e-03
    2.09816941e-03 5.98088081e-04 7.59409042e-04 5.82575041e-04
    1.17276912e-03 8.16532504e-03 2.46136286e-03 8.81076485e-05
    8.24897783e-04 2.55078590e-03 -7.07410974e-03 2.55575520e-03
    8.72426783e-04 2.11117836e-03 7.42807926e-04 -3.18806339e-03
    -2.84171943e-03 -4.79711825e-03 -8.47438164e-03 -6.60846615e-03
    -5.23497409e-04 -3.42347845e-03 -3.74710944e-05 3.57758650e-03
    2.35530455e-03 -1.09090717e-04 -4.35672281e-03 -6.64261915e-03
    4.57445014e-04 -2.94405560e-04 -3.52983782e-03 -4.93879290e-03
    4.76596178e-03 1.01104961e-03 1.47780913e-04 7.80433067e-04
    -1.67840335e-04 1.70868402e-03 2.59632757e-03 -1.77122327e-03
    -4.16248804e-03 -3.47042136e-04 -3.76307988e-03 2.82922736e-03
    6.26723468e-03 3.97078879e-03 -4.45969729e-03 -6.57807686e-04
    -2.32951296e-03 -3.78528261e-03 3.58030410e-03 2.28651636e-03
    -5.94147656e-04 -8.38969368e-04 -4.20832913e-03 -4.45227185e-03
    1.39915326e-03 -1.74277241e-03 -3.40973493e-03 -5.98078710e-04
    -1.41050282e-03 -1.31733972e-03 1.11773435e-04 -5.03094913e-03
    -1.07158779e-03 2.67349387e-05 -2.68144673e-03 4.98757814e-04
    -9.37678968e-04 -1.42834871e-03 3.05009936e-03 3.64072225e-03
    1.70644722e-03 -8.23113776e-04 2.89128302e-03 4.23233141e-04
    2.77449982e-03 2.22132471e-03 6.77286275e-03 4.77514137e-03
    9.61414829e-04 -1.52385188e-03 -8.09898600e-03 -3.25395609e-03
    -4.81404504e-03 2.31975559e-04 1.77279158e-04 5.75305894e-04
    -2.63837143e-03 -1.47384836e-03 -7.14610564e-03 -7.17634475e-03
    7.42854842e-04 1.36118309e-04 5.23135159e-03 2.97209341e-03
    9.15478077e-03 1.27627293e-03 -1.84088916e-04 -8.40455852e-03
    -3.07851564e-03 1.57402561e-03 2.20752903e-03 2.46488897e-04
    -1.04020850e-03 5.24036912e-03 4.03175480e-04 -2.81142863e-03
    -4.16684989e-03 -1.84846797e-03 7.60448165e-04 5.25088923e-04
    4.28935932e-03 -6.96160598e-04 1.09195262e-02 1.80274760e-03
    5.10909769e-04 -1.74232246e-03 -8.78867134e-03 -4.38892952e-04
    2.47032009e-03 4.51903371e-03 -1.61860452e-03 2.75284471e-03
    -2.16430356e-03 -4.92335344e-03 -1.16703706e-02 -1.64584059e-03
    1.16022595e-03 9.73124639e-04 8.87846667e-03 2.97208293e-03
    9.24432464e-03 1.36244309e-03 5.36290463e-04 -2.63736397e-03
    -1.18327420e-03 -8.58875050e-04 -1.40525331e-03 5.28254919e-03
    -3.22798477e-03 8.22056364e-03 9.07669426e-04 1.64704828e-03
    -3.18017177e-04 -2.61017517e-03 -8.98642757e-05 -6.55766460e-04
    7.61110010e-03 -5.10638673e-03 -1.97831006e-03 -2.97775515e-03
    -1.92691723e-03 -2.29448755e-03 -1.08667905e-03 -8.09223216e-04
    -7.01756217e-04 8.44195578e-03 9.71904199e-04 5.24783041e-03
    1.07381865e-03 6.91115041e-04 -2.23391294e-03 -3.93092958e-03
    -1.88639166e-03 -7.43059325e-04 7.86502194e-03 -4.71609971e-03
    -3.65290558e-03 -1.60546147e-03 -1.85919285e-03 -4.44769626e-03
    -5.99960284e-03 -6.91623209e-05 -1.02943108e-04 8.20295885e-03
    -8.34919105e-04 -6.40705053e-04 -1.96035183e-03 -2.51763267e-04
    -4.56494372e-03 -6.42486522e-03 -3.91960988e-04 -1.66862190e-03
    8.05616658e-03 2.43723462e-03 4.22444101e-03 -3.90063319e-03
    -1.76649238e-03 -5.50501607e-03 -6.61226595e-03 -2.54567550e-03
    -6.36913348e-04 8.09818879e-03 -5.44400373e-03 -3.81325535e-03
    -1.65458734e-03 -6.07658585e-04 -5.20879636e-03 -7.80429970e-03
    -2.85425293e-03 -5.43140760e-03 6.49146223e-03 -2.67009274e-03
    -9.48909495e-04 -2.69658118e-03 -1.54139649e-03 -7.45879766e-03
    -1.61214627e-03 4.42271092e-04 6.73017421e-05 6.05535274e-03
    -9.74300609e-04 2.77724676e-03 -4.53685317e-03 -2.78793601e-03
    -2.67765624e-03 -3.28004026e-05 2.27316213e-03 2.14113781e-04
    1.61002134e-03 -5.98309981e-03 9.63434228e-04 -5.21496683e-03
    -3.41952266e-03 -2.11815024e-03 -1.17061462e-03 7.39715877e-04
    -1.34625484e-03 5.02910512e-03 -4.14209859e-03 -1.51258102e-03
    -1.79950427e-03 1.28264935e-03 -9.52950912e-04 1.95907615e-03
    2.68582162e-03 1.23077864e-03 3.57593689e-03 -8.26959312e-03
    -1.90131983e-03 -5.09844627e-03 -3.20573716e-04 -5.20684407e-04
    4.18709544e-03 3.53145506e-03 -1.90577947e-03 -5.93557546e-04
    -6.40278263e-03 -1.10362028e-03 -6.51985779e-03 -9.11894662e-04
    1.63547578e-03 9.54245124e-03 6.39068661e-03 -2.00172793e-03
    6.22289116e-03 -6.20604539e-03 -4.24235314e-03 -7.80138001e-03
    1.01554161e-03 7.25425361e-03 1.83352770e-03 3.48701887e-03
    8.23153008e-04 2.00482272e-03 -3.99476802e-03 -2.45237577e-04
    -5.24468627e-03 -2.78958748e-03 -2.60148291e-03 4.93067456e-03
    7.64642097e-03 -3.91918980e-03 1.88476813e-03 -6.42004597e-04
    -1.23566261e-03 -5.60967624e-03 1.06054664e-04 4.24987823e-03
    3.94305354e-03 3.17650475e-03 -1.10097486e-03 7.96550512e-03
    -3.37846950e-03 -1.03677867e-03 -4.26029554e-03 7.99839851e-04
    1.69769023e-03 2.72943173e-03 9.61145794e-04 -4.06728359e-03
    5.34826750e-03 2.10726343e-04 4.63833625e-04 -9.66812193e-04
    2.27430160e-03 3.45421169e-04 1.98071473e-03 2.58509861e-03
    -2.37617712e-03 6.06901944e-03 -1.66885951e-03 -7.18656112e-04
    -2.32531899e-03 4.31452598e-03 1.73191004e-03 -1.31397013e-04
    -8.46459181e-04 -2.28952779e-03 8.80554970e-03 2.29267124e-03
    1.13396521e-03 9.89671564e-04 5.59250405e-03 6.38349506e-04
    3.13409790e-03 1.22485671e-03 -3.12013901e-03 1.06631138e-03
    -3.22195818e-03 6.31023024e-04 8.91074014e-05 2.60538841e-03
    8.97171034e-04 3.36160511e-03 4.61730035e-03 -8.01980728e-04
    3.84999532e-03 -2.53166363e-04 4.71892301e-03 1.08094001e-03
    2.87768105e-03 2.17343401e-03 -1.08368020e-03 -1.14154024e-03
    -3.94837279e-03 5.41917235e-03 -4.24157130e-03 2.63679284e-03
    4.24054597e-04 4.18001553e-03 9.07579029e-04 -6.74113398e-04
    3.41047836e-03 2.97225051e-04 6.56355778e-03 -2.43716128e-03
    7.15576531e-03 1.69231836e-03 2.31767725e-03 5.45465620e-04
    -1.60894904e-03 9.29966744e-04 -1.57212268e-03 4.17091418e-04
    5.27499057e-03 7.55131128e-04 -2.57475278e-03 -3.18615464e-04
    -1.07799633e-03 -4.46794648e-03 -1.76000223e-03 -3.57251801e-03
    1.36978866e-03 5.56901423e-03 6.39797328e-03 1.63081090e-03
    1.50814070e-03 -1.53593824e-03 -1.81129191e-03 -6.32731884e-04
    -1.76496990e-03 -1.86106574e-03 2.90841883e-04 4.70726378e-03
    -5.64329384e-04 1.35781139e-03 -8.76695267e-04 -8.46783281e-04
    3.23147699e-03 2.66576209e-03 3.21533589e-04 -3.48844938e-03
    6.16543833e-03 7.01026351e-04 8.98851358e-05 -1.11981307e-03
    -5.01919538e-03 -2.40989286e-03 -3.21755558e-03 -5.10068028e-04
    3.64715653e-03 5.76547533e-03 7.52552878e-04 5.07097284e-05
    -3.40519496e-03 -3.77944694e-03 1.19586615e-03 6.77207485e-04
    8.89183022e-04 8.44535232e-03 5.59708802e-03 1.89951318e-03
    4.13383998e-04 -4.90653515e-03 -4.90588415e-03 3.10477754e-03
    3.46494606e-03 -3.65118205e-04 -2.10223347e-03 4.78781061e-03
    -6.59281868e-05 -2.86269910e-03 -5.54429833e-03 -3.52684781e-03
    4.10914840e-03 3.01212259e-03 2.97413702e-04 4.89043118e-03
    4.92972974e-03 2.21203873e-03 -9.34825628e-04 -6.14072988e-03
    -1.38336327e-03 9.54005169e-04 2.54086312e-03 2.00386951e-03
    5.93990972e-03 6.02718489e-03 4.25394574e-05 -6.00364467e-04
    -2.58838315e-03 -4.00250498e-03 -2.70136120e-03 1.64689391e-03
    -7.82926218e-05 -2.28234311e-03 7.20602833e-03 -1.36152783e-03
    -6.20730105e-04 -2.48729973e-03 -2.06856220e-03 2.59646936e-03
    2.68479506e-03 4.26651537e-03 6.87339203e-03 6.38794852e-03
    4.69224062e-04 -1.52179261e-03 -2.72727013e-03 -3.10387695e-03
    -1.64389971e-03 1.23069552e-03 3.13972495e-03 5.21926209e-03
    8.35646410e-03 8.86370399e-05 1.48378045e-03 2.19764639e-04
    -5.12988307e-03 -3.67783767e-04 1.26529543e-03 1.00365502e-03
    9.98795591e-03 8.24361667e-03 -2.52355792e-04 -4.16971248e-04
    -4.13708901e-03 -9.77708213e-03 -1.61133939e-03 -8.16236483e-04
    1.11980876e-03 3.93293845e-03 6.03064289e-03 -8.61627632e-04
    -2.58439290e-03 -7.55988387e-03 -3.20058083e-03 -1.15230435e-03
    2.09332374e-03 3.51105398e-03 1.09256562e-02 9.51851625e-03
    2.40456802e-03 2.57961801e-03 -3.08893883e-04 -4.67221346e-03
    -2.29068869e-03 -2.40026996e-03 -9.85231600e-04 -1.41098199e-03
    4.25333343e-03 -1.46764074e-03 1.86560070e-03 -2.76600523e-03
    -1.02123395e-02 -1.62734929e-03 -2.12900620e-03 1.01793581e-03
    8.62714835e-03 5.44269895e-03 2.67723552e-03 -1.97989546e-04
    -9.25802533e-03 -6.49309205e-03 -1.00692932e-03 -1.74603879e-03
    2.36953935e-03 5.82499569e-03 6.00751489e-03 3.30259558e-03
    2.10616644e-03 -5.07458020e-03 -5.36476355e-03 -1.96576561e-03
    -2.73582921e-03 -1.45278766e-03 6.16498385e-03 3.44849401e-03
    -9.33234405e-04 1.12330797e-03 -4.62600682e-03 -5.00903884e-03
    -1.48707046e-03 -1.77121244e-03 2.26750248e-03 8.06418993e-03
    5.50252059e-03 1.51415681e-03 -9.52411676e-04 -5.90278907e-03
    -4.35008528e-03 -3.77742364e-03 -3.03642103e-03 1.28857745e-03
    2.07161205e-03 1.91572623e-03 -1.05757709e-03 4.05468512e-04
    -3.12251877e-03 -4.19403566e-03 -3.42696253e-03 -2.59810570e-03
    1.17530255e-03 4.34104493e-03 1.25063187e-03 -3.11235461e-04
    6.47766137e-05 -3.91361536e-03 -5.04425354e-03 -2.38601491e-03
    -3.38269514e-03 4.08174889e-03 3.18169850e-03 4.98449430e-03
    1.84376596e-03 -8.64583824e-04 -5.24344249e-03 -7.44129904e-03
    -2.10574828e-03 -1.45028229e-03 3.06833372e-03 3.15271388e-03
    7.97817297e-03 4.61142790e-03 2.78740609e-03 -5.75832045e-03
    -7.00168870e-03 -7.18413445e-04 3.82627215e-04 3.01075657e-03
    2.85905553e-03 2.88071297e-03 2.02794303e-03 -4.84930963e-04
    -7.17799785e-03 -1.06858686e-02 6.85232284e-04 2.78039346e-03
    4.47201636e-03 3.79294087e-03 -3.33831529e-03 -4.14015539e-03
    -7.40759308e-03 -1.29352482e-02 -6.93498645e-03 -1.28757861e-03
    1.71594322e-03 5.03062923e-03 6.95455028e-03 8.62988643e-03
    6.75240438e-03 3.21649667e-03 -4.56719799e-03 -1.14928847e-02
    -2.14687592e-04 2.81335670e-03 7.01360079e-03 1.14219123e-02
    3.29762162e-03 1.23713433e-03 -1.12436141e-03 -1.01442989e-02
    -5.73546113e-03 3.82415182e-03 2.11612601e-03 4.07578796e-03
    5.83604397e-03 -4.43705998e-04 -3.60493222e-03 -4.40716371e-03
    -8.12181737e-03 -4.83610062e-03 2.14231753e-04 -1.59807294e-03
    -6.10740390e-05 3.18212272e-03 2.75753648e-03 3.17651109e-04
    -2.76337471e-03 -7.11967470e-03 -3.09058069e-03 2.95529189e-03
    3.24848201e-03 5.28405886e-03 6.88635791e-03 1.78154383e-03
    -2.10667099e-03 -3.23971082e-03 -5.64805698e-03 -1.21978915e-03
    -1.24078232e-03 4.13526170e-04 3.62698478e-03 1.52241811e-03
    3.78549751e-03 -1.92232011e-03 -5.81925362e-03 -5.42780897e-03
    -5.22303395e-03 -1.18985854e-03 -8.48298136e-04 -2.52882368e-03
    -4.89640988e-05 3.71978735e-03 1.06493966e-03 -7.03132653e-04
    -6.93275919e-03 -4.38044686e-03 5.83431392e-04 -1.48904088e-04
    1.52939255e-03 -9.62387014e-04 8.37035128e-04 3.36048921e-04
    1.12741884e-06 -6.66808756e-03 -3.66285280e-03 -7.60874304e-04
    1.72635971e-03 1.24652870e-03 2.86706537e-03 6.11912832e-03
    -3.79740290e-04 -2.49625416e-03 -5.34782838e-03 -5.17493347e-03
    2.31203996e-03 4.17516986e-03 4.28518979e-03 1.61666202e-03
    3.02495132e-03 4.38600685e-03 -8.12409446e-04 -5.37938578e-03
    -4.30364348e-03 1.16198242e-03 3.49612150e-04 3.19109438e-03
    1.78354979e-03 -1.09479146e-03 -1.11660396e-03 -1.30028860e-03
    -5.15345577e-03 -3.92021518e-03 1.70260295e-03 3.06711835e-03
    5.83899021e-03 6.72187423e-03 3.32199875e-03 -2.46228679e-04
    -8.79998144e-04 -6.37804158e-03 -4.94714221e-03 2.08194088e-03
    1.43284525e-03 3.38637712e-03 4.97281086e-03 -4.20745026e-04
    1.95147179e-03 -2.81290803e-03 -6.26426889e-03 -4.66894917e-03
    -3.15845129e-04 2.41229124e-03 4.47257236e-03 3.69988452e-03
    -1.85630075e-03 -3.28444503e-03 -3.75197525e-03 -8.36706348e-03
    -4.52469010e-03 -1.29710778e-03 2.53958773e-04 4.55532409e-03
    1.13547931e-03 1.08615018e-03 -2.77215824e-03 -1.98800350e-03
    -7.80730043e-03 -8.47090196e-05 2.28953804e-03 1.85907737e-03
    9.10646282e-03 8.66076164e-03 6.83138752e-03 6.82710670e-04
    1.23911723e-03 -1.61983003e-03 -6.66035526e-03 -3.00049921e-03
    -1.54920295e-03 1.64190331e-03 6.71489164e-04 -3.50747141e-03
    -3.44052748e-03 -4.49445844e-03 -9.02203470e-03 -5.86661883e-03
    5.62471512e-04 -4.36800765e-04 7.38696381e-03 7.32919620e-03
    2.17433833e-03 -3.36175994e-03 -2.50783889e-03 -6.41339691e-03
    -8.65873531e-04 2.60930345e-03 1.35032355e-03 1.03415027e-02
    3.76886968e-03 5.22464886e-03 -3.85350926e-04 -7.95527420e-04
    -2.61956337e-03 -2.38800002e-03 1.10499968e-03 1.69363193e-04
    5.81205916e-03 5.59185538e-03 1.29906996e-03 -1.11529359e-03
    -1.96290738e-03 -2.79468927e-03 -5.71408356e-03 2.09005462e-04
    -3.56799481e-03 6.30616676e-03 2.62583373e-03 1.49489706e-03
    -4.24520019e-03 -7.27753947e-03 -1.02006327e-02 -1.80913566e-03
    5.89965552e-04 -4.15957486e-03 2.73783458e-03 7.59824878e-03
    5.39765868e-04 -4.41599544e-03 -6.06014207e-03 -6.12998661e-03
    -3.12776375e-03 7.21799210e-04 7.04833074e-04 7.69485813e-03
    2.55208160e-03 1.35756878e-03 -1.32489321e-03 -8.02497671e-04
    -1.57530874e-03 -4.89041582e-03 -1.15628100e-04 -1.79461774e-03
    7.74220331e-03 -2.21809885e-03 1.24883768e-03 -2.01166584e-03
    2.15979759e-03 -2.88726157e-03 -4.02856944e-03 -9.26204782e-04
    -2.71795201e-03 4.70359065e-03 4.77232737e-03 3.90982162e-03
    -1.33492053e-03 -1.85114192e-03 -3.77866067e-03 -3.58394557e-03
    -1.32236746e-03 -3.87943326e-03 3.51907359e-03 7.92344159e-04
    5.79644414e-03 -3.47015960e-03 -2.36545713e-03 -3.74079286e-03
    -1.76358595e-03 8.43657355e-04 1.09184994e-05 6.01458130e-03
    -2.15134886e-03 9.56308795e-04 -2.03098520e-03 1.55429007e-03
    -9.33677074e-04 -4.76099027e-04 1.84716005e-03 5.49659482e-04
    6.75267121e-03 -1.86946185e-03 2.15115258e-03 -3.77580943e-03
    -1.12788251e-03 -1.16474263e-03 -2.22310238e-03 -4.15073184e-04
    -5.20774920e-04 6.54534297e-03 4.04612347e-03 2.31564185e-03
    -3.89673049e-03 -2.60381890e-03 -1.86496100e-03 -2.45847320e-03
    2.06826953e-04 9.35185875e-04 7.24425027e-03 -1.10993942e-03
    -7.08742955e-05 -3.98945296e-03 -3.01638595e-03 -1.88537396e-03
    1.57542492e-03 3.51775298e-03 2.48696981e-03 6.00678101e-03
    4.36346373e-03 4.17100498e-03 -1.90204766e-03 -8.40604655e-04
    -6.65223983e-04 3.92580079e-03 4.17093979e-03 -3.65527114e-03
    1.96488504e-03 4.54101898e-03 5.52254915e-03 3.17418395e-04
    1.80320104e-03 2.82845879e-03 -8.96277852e-05 1.39199407e-03
    1.15043216e-03 5.03850402e-03 -6.67727611e-04 5.82944194e-04
    -3.58270691e-03 -2.24490790e-03 -1.50461041e-03 3.33982636e-04
    -3.82966973e-04 -3.34244641e-03 1.38459716e-03 3.29186511e-03
    3.26529914e-03 -1.44006498e-03 -2.34247651e-03 -1.18968089e-03
    1.24345359e-03 1.21556816e-03 -3.01146298e-03 3.06841661e-03
    -1.13040186e-03 4.85268282e-03 1.01407338e-03 4.30942746e-03
    8.07006843e-04 -3.14773497e-04 2.10016035e-03 2.74698692e-03
    6.00595912e-03 1.74908515e-03 3.91606940e-03 9.20213293e-04
    7.32070440e-03 1.14206923e-03 -3.42776038e-04 -1.35949568e-03
    -3.06169433e-03 1.23419357e-03 -1.61136000e-03 5.47788432e-03
    -1.16919365e-03 -3.04408674e-03 -2.71656225e-03 -9.55635565e-04
    -1.74314179e-03 -1.87227060e-03 2.38883519e-03 1.92992541e-03
    6.76115509e-03 -8.91767093e-04 3.34653934e-03 -1.53506291e-03
    -1.96143100e-03 -1.67228898e-03 -7.76630011e-04 3.52021377e-03
    -3.67690955e-05 4.36315918e-03 7.71551218e-04 5.00906492e-03
    -4.75572509e-04 1.58638679e-04 1.91052130e-03 -1.55850081e-04
    8.87008570e-03 2.89230753e-04 7.09167449e-03 1.41690439e-03
    2.59115361e-03 1.61452265e-03 -3.66620673e-03 -3.39920656e-03
    -3.06289573e-03 5.03724767e-03 2.00832146e-03 4.05674847e-03
    -4.56500100e-04 1.90312753e-03 -3.19236889e-03 -2.81434134e-03
    -1.60035363e-03 -3.45059833e-03 6.96917437e-03 2.53003603e-03
    9.93185397e-03 2.19314639e-03 1.70626177e-03 -2.64921761e-03
    7.01955752e-04 2.01403564e-05 -1.78351905e-03 -8.44403054e-04
    2.30087037e-03 4.97652311e-03 4.25190839e-04 6.18374674e-04
    5.95034449e-04 3.22237564e-03 8.19356879e-04 9.23200161e-04
    1.45432961e-04 -3.88614205e-03 4.97643277e-03 1.73003052e-03
    4.02234400e-05 2.80788681e-03 1.52548740e-03 1.46102486e-03
    -2.07704864e-03 -1.37712189e-03 -3.98133742e-03 1.78215269e-03
    -3.30053177e-03 1.23626087e-03 1.35754771e-03 3.29909311e-03
    -8.22245202e-04 -4.34302213e-03 -9.47425578e-05 -7.21179694e-03
    1.87978172e-03 -2.84084497e-04 -1.26802863e-03 4.59175603e-03
    3.27883929e-04 1.70447049e-03 2.56225746e-03 2.02509249e-03
    -2.67506018e-03 4.90360567e-03 -5.26695338e-04 -2.32840190e-03
    -1.57271163e-03 -1.77861832e-03 3.56559758e-03 2.58212211e-03
    4.44823783e-03 4.91246767e-03 5.03978785e-03 1.76981557e-03
    -1.11194572e-03 -3.40154534e-03 3.68451979e-03 7.09870015e-04
    -1.58254232e-03 1.37462921e-03 -3.63102416e-03 3.08676902e-03
    -3.09903920e-03 -2.41620000e-03 2.69066985e-03 8.40013381e-04
    3.49589507e-04 -3.19740240e-04 3.96199571e-03 1.26204803e-03
    2.16799951e-03 -2.33985763e-03 -1.96197885e-03 1.57949969e-03
    -1.96681684e-03 4.06439509e-03 2.31881626e-03 7.39613967e-03
    4.98048775e-03 5.04459254e-03 1.14300894e-03 -2.82058259e-03
    -1.62506418e-03 -1.78136153e-03 2.26012967e-03 3.09818168e-03
    5.79185691e-03 6.39915606e-03 6.24114648e-03 1.21323648e-03
    1.85149838e-03 8.67059920e-04 -1.43279636e-03 1.30497455e-03
    8.51178309e-04 6.18354185e-03 5.19614620e-03 3.66804097e-03
    -2.76461965e-03 -3.05382721e-03 -4.82826261e-04 -4.04988974e-03
    1.28052128e-03 1.08913274e-03 4.60745487e-03 3.31711350e-03
    5.47465030e-03 -1.93897838e-04 -3.05652246e-03 -3.99390003e-03
    -3.49654863e-03 2.19241949e-04 4.09554970e-03 4.60672192e-03
    8.54086690e-03 9.91354510e-03 1.66151067e-03 9.46250977e-04
    -2.20193551e-03 -3.09316791e-03 -1.21113495e-03 -1.26168627e-04
    3.16831749e-04 6.88679051e-04 3.48782935e-03 -2.79449834e-03
    -7.93531217e-05 -2.29619839e-03 -3.72237386e-03 1.72900176e-03
    3.00721987e-03 6.25566998e-03 9.19690169e-03 1.12424763e-02
    2.48411042e-03 -4.10962710e-03 -6.24756981e-03 -6.40527019e-03
    -3.62425257e-04 5.51406629e-05 3.32205882e-03 6.44798065e-03
    6.43799081e-03 -2.51681753e-03 -3.66228842e-03 -9.51519981e-03
    -3.87644558e-03 -1.80816790e-03 -1.43444212e-03 -1.57623563e-03
    3.64353973e-03 -1.45973021e-03 -2.48759310e-03 -2.50660494e-04
    -3.65722645e-03 -4.78526764e-03 7.55478570e-04 1.02754903e-03
    3.51084536e-03 1.14715118e-02 3.01916734e-03 8.75266909e-04
    -5.00302587e-04 -5.39629115e-03 -4.82906075e-03 -2.78617954e-03
    -3.82491446e-04 -3.71994596e-04 4.23734449e-03 -1.10570260e-03
    -2.87767337e-03 -3.81149701e-03 -7.09800282e-03 -2.66608689e-03
    1.09329179e-03 2.82031018e-03 5.94341615e-03 8.21575243e-03
    3.77516146e-03 2.03486113e-03 -3.70096648e-04 -6.25020266e-03
    -5.29929390e-03 -4.92134830e-04 -2.66011199e-03 1.97958224e-03
    2.67236726e-03 3.44619155e-03 1.49800780e-03 -9.44489380e-04
    -5.39900921e-03 -3.94461816e-03 -1.86788337e-03 -2.26194668e-03
    1.82380120e-03 2.26661959e-03 6.44549634e-03 3.04661132e-03
    1.69077120e-03 -2.87577859e-03 -1.28745253e-03 2.42614979e-03
    -1.17718289e-03 2.24993727e-03 1.26456888e-03 4.47760522e-03
    2.36284314e-03 8.82212364e-04 -3.98933794e-03 -1.43120706e-03
    -5.28404431e-04 -3.17105651e-03 -1.65376731e-03 -1.32505700e-03
    6.71099359e-03 2.53646076e-03 -8.03362287e-04 -2.22226419e-03
    -5.56844333e-03 -2.79554864e-03 2.40297668e-04 4.28650016e-03
    5.06950310e-03 5.89047000e-03 1.97919668e-03 1.63032953e-03
    -4.42965701e-03 -1.03609199e-02 -1.60994066e-03 -4.11105691e-04
    3.24553112e-03 9.69546195e-03 1.12183404e-03 -2.81007402e-03
    -5.93235192e-04 -9.80921835e-03 -5.77915506e-03 -2.83380016e-03
    -1.05979014e-03 1.44682778e-03 3.43998848e-03 4.40644799e-03
    -9.02777479e-04 -7.10845634e-04 -4.84186225e-03 -6.44486630e-03
    -4.41090633e-05 1.75974425e-03 2.91062938e-03 1.04649263e-02
    4.77612833e-04 -3.40069667e-03 1.80127623e-03 -7.30769662e-03
    -6.45484356e-03 -1.11822493e-03 -1.24561106e-04 1.73628097e-03
    5.38579375e-03 1.91935431e-03 -2.52575008e-03 -1.22914789e-03
    -5.24729909e-03 -5.70355961e-03 -2.60002678e-03 -7.62252195e-04
    2.51061021e-04 1.97585952e-03 1.86194887e-03 -4.84582363e-03
    -6.11623190e-03 -7.68809346e-03 -5.00642881e-03 -1.25338836e-03
    2.94666411e-03 1.12636411e-03 8.10226332e-03 4.04397069e-05
    -1.92766648e-03 1.90967449e-03 -2.81708897e-03 -3.30374809e-03
    -9.01705236e-04 1.48946757e-03 -1.45628743e-04 8.33914988e-03
    6.09752024e-04 -4.35382390e-04 2.20011963e-04 -3.46524245e-03
    -2.98413681e-03 6.62910907e-07 9.27810615e-04 3.25601501e-03
    5.68831712e-03 4.30605188e-03 -1.60092791e-03 -4.02601901e-03
    -5.45862783e-03 -5.74400928e-03 5.82372071e-04 3.05768335e-03
    2.76184850e-03 2.60636397e-03 2.47479137e-03 1.71446009e-03
    -1.85259467e-03 -3.60680558e-03 -2.40305159e-03 1.07437989e-03
    6.82556944e-04 1.91930996e-03 6.65391749e-03 7.73877895e-04
    -9.50126559e-04 -7.70972227e-04 -2.92055449e-03 -4.53664735e-03
    -1.48092420e-03 1.18184392e-03 7.42835342e-04 6.85064867e-03
    2.18783345e-04 -6.43875857e-04 9.87018866e-05 -2.17869505e-03
    -4.64904634e-03 9.92621281e-05 1.08126819e-03 2.06005457e-03
    4.41973051e-03 4.92589374e-04 2.03303341e-03 1.97125730e-04
    -2.59092054e-03 -3.58315487e-03 6.74623152e-05 2.40502646e-03
    5.12443995e-03 3.37673631e-03 1.49033236e-04 -2.12805971e-04
    -5.42733702e-04 -3.38708330e-03 -2.29728315e-03 -1.09848555e-03
    4.14203474e-04 1.12577586e-03 4.57678130e-03 -1.78965303e-04
    4.15363495e-04 2.87829502e-03 2.13866145e-03 -2.78680120e-04
    -4.72744607e-04 7.56060879e-04 7.32352585e-03 2.93148495e-03
    1.46567554e-03 -4.33782319e-04 1.95173570e-03 2.54053576e-03
    -4.41930396e-03 -1.76120302e-05 1.56136102e-03 2.51644384e-03
    5.64008579e-03 -3.74169089e-03 -2.48482334e-03 -3.32590262e-03
    -6.00395026e-03 -3.99282342e-03 3.54059879e-03 1.87310146e-03
    5.69503149e-03 1.03805279e-02 1.94260082e-03 -2.17652181e-03
    -4.29894216e-03 -7.00561889e-03 -5.66787028e-04 4.26541606e-04
    7.36535701e-04 5.11253579e-03 3.42361699e-03 -2.55559571e-03
    -8.56276311e-04 -2.51372787e-03 -1.38921360e-03 2.13035499e-04
    4.17007599e-03 3.02927627e-04 3.12414393e-03 -8.44403694e-05
    1.90344360e-03 -6.76066382e-04 -3.03399307e-03 -1.97597127e-03
    -3.33228591e-03 2.35929945e-03 3.95303796e-04 3.58782290e-03
    4.00600070e-03 2.28656060e-03 -7.90324470e-04 -3.16580734e-03
    -6.70173997e-03 -1.22778758e-03 9.61794052e-04 -5.76217717e-04
    1.99954957e-03 9.47844703e-03 -1.47278118e-03 -5.62320289e-04
    3.02612869e-04 -3.89178982e-03 -1.13707071e-03 3.12167639e-03
    3.73146089e-04 3.95885181e-05 -7.76633201e-03 5.20158152e-04
    -1.44209014e-03 -2.21043872e-03 -2.92718317e-03 3.17310751e-03
    3.30271549e-03 -2.25559808e-03 -2.59536831e-03 3.67181445e-03
    -2.63149850e-03 -3.13087227e-03 -2.96845919e-05 1.55654142e-03
    -3.55045358e-03 -2.82247667e-04 -1.04142143e-03 5.38257044e-03
    6.08038064e-03 1.93287455e-03 -6.54522562e-04 3.54205607e-04
    -4.08735592e-03 -3.63655086e-03 1.61378121e-03 -1.51170045e-03
    3.83682270e-03 5.82496915e-03 6.16198359e-03 -3.10508127e-04
    -5.05181437e-04 -3.85235320e-03 -2.62096850e-03 2.05500261e-03
    -1.97774335e-03 2.72483914e-03 6.78219739e-03 -1.05850771e-03
    -5.05502615e-03 -1.70630554e-03 -3.46117653e-03 -4.05318243e-03
    1.61267887e-03 -1.07422029e-03 5.19971550e-03 4.69791424e-03
    2.74443347e-03 -4.23801783e-03 1.03623548e-03 -5.47343167e-03
    4.34228103e-04 3.19240382e-03 7.70863960e-04 3.58090969e-03
    6.41526282e-03 2.47536809e-03 -1.28378463e-03 4.27488965e-04
    1.00431724e-04 1.15586224e-03 1.92346633e-03 2.49324972e-03
    7.24006444e-03 -2.06633424e-03 2.92043015e-03 1.29855028e-03
    7.73376960e-04 -1.14342500e-03 -2.22607094e-04 2.66102143e-03
    4.08231921e-04 4.48673405e-03 1.59886316e-03 -7.59394898e-04
    -2.67187157e-03 3.67788528e-03 -4.59377858e-04 -3.50500137e-04
    2.69550923e-03 -4.23156489e-05 1.34820084e-03 -4.36223764e-03
    1.32348167e-03 3.80408688e-04 2.85537681e-03 -1.83723809e-03
    1.89160602e-03 1.82514614e-03 1.26504083e-03 3.00504896e-03
    -9.06904344e-04 3.86753760e-04 -3.56804696e-04 1.24133483e-03
    -1.61697884e-04 1.50821987e-03 1.11020857e-03 2.43209396e-03
    6.69171009e-03 6.09480776e-03 1.62963138e-03 -6.65155472e-04
    -1.57061429e-03 -8.20380810e-04 2.05877051e-03 2.35273247e-03
    4.26074956e-04 1.00076199e-03 -1.54141570e-03 -2.44645315e-04
    1.02826592e-03 1.90773560e-03 7.31458247e-04 7.64990808e-04
    2.68493616e-03 -7.23223377e-04 4.36283881e-03 4.83375322e-03
    1.15278002e-03 4.73399385e-04 2.34441808e-03 -4.51192172e-04
    8.99548031e-05 7.73049251e-04 3.45441571e-04 4.35568299e-03
    5.76117709e-05 1.71748747e-03 -2.29532481e-03 -3.73449130e-03
    -2.85878428e-03 7.78993301e-04 4.44803061e-03 2.68730568e-04
    1.12783210e-03 -4.75405046e-04 2.81895092e-03 -3.25513049e-03
    7.21459044e-04 6.31392119e-04 -5.13546518e-04 8.08240904e-04
    -3.13234096e-03 2.64305086e-03 3.26334313e-03 1.68907849e-04
    -1.11437449e-03 1.29454347e-04 -2.20951880e-03 -3.01789350e-05
    4.60996339e-03 -5.80278167e-04 9.30796436e-04 -1.30132248e-03
    1.12593826e-03 3.17402097e-04 3.82511062e-03 -6.50422415e-04
    -7.98409921e-04 2.66834232e-03 -1.33035996e-03 7.93299638e-04
    -4.77019465e-03 6.26026653e-04 -3.00543383e-03 7.91998638e-04
    -6.03902212e-04 -3.44496184e-05 1.82374357e-03 -6.55298179e-04
    6.10980904e-03 2.72375508e-03 4.47077304e-03 -6.70166555e-05
    2.14177184e-03 -2.13117222e-03 -6.26213092e-04 3.03428434e-03
    -1.59449386e-03 -8.66271672e-04 -4.42308607e-03 -1.60723866e-03
    4.15427756e-04 3.98085732e-03 -1.60789408e-03 3.54319322e-03
    5.63766714e-03 2.94268481e-03 6.25449466e-03 -1.50474324e-03
    1.35967799e-04 1.07610576e-04 2.54722685e-03 1.35433802e-03
    -9.51863825e-04 -1.32285210e-03 -3.80999362e-03 -5.94607741e-03
    -1.77786557e-03 2.02130643e-03 -2.76766787e-03 7.62703887e-04
    1.74087836e-04 -1.23375189e-03 -8.03132134e-04 -3.28013091e-03
    -7.46399746e-04 -1.19284634e-03 -1.23027145e-04 -4.47305432e-03
    -2.18648394e-03 -4.70172818e-04 2.19983747e-04 2.82912661e-04
    -2.73359497e-03 -4.02309187e-03 2.12833774e-03 6.22579642e-03
    -2.44096969e-03 1.31792529e-03 -6.31962554e-04 1.17148831e-03
    1.76624081e-03 2.35588290e-03 4.12681344e-04 -1.61143939e-03
    2.47959862e-03 -5.09980833e-03 -1.26904249e-03 -6.05696463e-04
    1.22506975e-03 1.53055438e-03 -4.80292423e-04 3.34905562e-05
    2.95502110e-03 -8.34878301e-05 -3.13003524e-03 -1.72704679e-03
    7.33940222e-04 1.57157797e-03 1.05021230e-03 1.01690961e-03
    9.39186488e-04 4.54897946e-03 9.74824070e-04 -2.12759292e-03
    -2.37125182e-03 6.67665910e-04 5.73390513e-04 2.98508210e-03
    6.87802851e-04 1.42109740e-04 1.58263530e-04 3.10838863e-04
    -4.78470605e-03 -2.83270655e-03 1.02637138e-03 -1.44551496e-03
    2.12566298e-03 -2.05023098e-04 5.76919119e-04 1.07961439e-03
    -1.08786265e-03 -2.47159787e-03 -2.56774970e-03 -2.81582144e-03
    1.03079423e-03 1.58811314e-03 3.28200054e-03 3.36102745e-03
    2.85278470e-03 5.60291624e-03 -1.62973395e-03 -1.30040292e-03
    1.68630958e-03 -9.87123931e-04 3.86020285e-03 4.04311763e-03
    1.97485043e-03 5.88718685e-04 8.35279748e-03 9.13292286e-04
    -3.94083420e-03 -4.18002252e-03 -2.93037388e-04 1.64442230e-03
    3.51028680e-03 3.41730798e-03 -5.32200979e-03 6.48074923e-03
    3.59473261e-03 2.37135519e-03 -1.29175605e-03 -4.31606593e-03
    4.55106888e-03 6.08265214e-03 2.43582949e-03 -7.03766104e-03
    8.09475593e-03 4.75706253e-03 1.57360701e-04 -6.28455821e-03
    -2.19211914e-03 3.80868837e-03 2.08615256e-03 6.55032741e-03
    9.49402526e-03 1.18621457e-02 3.73362866e-03 -3.53704975e-03
    -6.32486632e-03 -5.02201915e-03 5.74478181e-04 -5.33327984e-04
    5.26340399e-03 6.09138329e-03 5.32572810e-03 -3.39098187e-04
    -2.03348370e-03 -5.71316807e-03 -3.09124612e-03 4.14515473e-03
    2.99999421e-03 5.30420337e-03 6.62355777e-03 8.61515012e-03
    3.81230051e-03 -2.34921812e-03 -5.40967146e-03 -7.41978968e-03
    -2.81415274e-03 -2.29278882e-03 4.68384335e-03 -1.70840987e-03
    3.18047521e-03 1.83562469e-03 -4.18863306e-03 -6.73368061e-03
    -1.64521253e-03 -1.63937546e-03 5.05172007e-04 3.02110636e-03
    7.86915794e-03 6.58879755e-04 -4.49902378e-04 -3.68872820e-03
    -3.74903693e-03 7.51168409e-04 -4.72385756e-04 4.13394906e-03
    6.48093177e-03 1.20744454e-02 6.02269825e-03 2.49257823e-03
    7.78366593e-05 -2.45724269e-03 -5.55714872e-03 -6.15557982e-03
    -1.09298655e-03 2.43039592e-03 1.76660274e-03 8.28020420e-05
    -4.90338134e-04 -4.20865556e-03 -3.48131242e-03 -5.94511488e-03
    -3.31472070e-03 2.59693130e-03 3.71211185e-03 6.71865139e-03
    5.52081782e-03 -1.43046794e-03 -3.21942684e-03 -3.85513785e-03
    -3.79640702e-03 -2.68893986e-04 1.18575827e-03 3.60741396e-03
    5.46186790e-03 6.06388366e-03 2.46217102e-03 -9.07456153e-04
    -4.09588311e-03 -1.71680190e-03 2.44599767e-04 -3.46190529e-04
    1.66818463e-05 3.14800162e-03 7.06629828e-03 5.17318491e-03
    1.24169723e-03 -2.10753875e-03 -6.44751079e-03 -2.38162396e-03
    1.05424027e-03 1.46974067e-04 4.94997902e-03 3.91421653e-03
    2.77336425e-04 -4.33274126e-03 -5.52729750e-03 -2.89145345e-03
    6.34737487e-04 3.92287591e-04 6.53247407e-04 1.04076685e-02
    4.46234783e-03 5.37244743e-03 -7.04085687e-04 -1.65846606e-03
    -3.12951021e-03 -1.27532275e-03 -3.37124744e-04 -1.09894935e-03
    1.98652924e-04 5.33509627e-03 4.26304201e-03 1.81884272e-03
    -2.41745193e-03 -5.61546488e-03 -4.43923665e-04 2.52411771e-03
    3.16391489e-03 5.51117305e-03 2.61919550e-03 -5.19475434e-04
    1.86976558e-03 -2.27405829e-03 -4.88735642e-03 -1.48000906e-03
    -1.75628578e-03 -1.87069539e-03 1.95775554e-03 4.43361001e-03
    5.28717786e-03 7.94375897e-04 -2.62658251e-03 -4.73551592e-03
    1.09083322e-03 1.84181065e-03 4.75069229e-03 7.77564431e-03
    7.33870035e-03 1.82291178e-03 2.96065188e-03 5.84009045e-04
    -2.95674545e-03 -9.33378979e-05 2.53764424e-03 2.79435259e-03
    2.41106073e-03 1.88838647e-04 -1.29699172e-03 2.45957728e-03
    -7.16407550e-04 -2.29835953e-03 4.55761066e-04 4.98267436e-05
    1.08591304e-03 1.57516846e-03 -3.80114466e-03 -2.77185114e-03
    1.62834869e-04 -2.54425709e-03 -1.39065296e-03 4.12011566e-03
    5.24873193e-03 6.36470551e-03 2.21734005e-03 2.97080423e-03
    -1.22545846e-03 3.19593586e-03 1.22731994e-03 -3.98051087e-03
    3.15274973e-03 3.55538423e-03 6.68501388e-03 -1.10806758e-03
    -2.40740701e-04 -4.43513924e-03 4.16944211e-04 -9.65364510e-04
    -2.60443427e-03 2.80694570e-03 1.63345993e-03 3.25057935e-03
    7.05064321e-03 -6.29606249e-04 -6.58452802e-04 6.68791879e-04
    -2.64883344e-03 -5.50708082e-03 -5.60957007e-04 9.59273835e-04
    1.97438383e-03 6.96723256e-03 1.76532043e-03 1.46214582e-03
    2.42563779e-03 -2.51824688e-03 -5.63302124e-03 3.09073273e-03
    2.23271316e-03 2.75152829e-03 3.64393415e-03 -4.70841507e-04
    -7.22936820e-04 1.57004630e-03 -2.71775830e-03 -7.85324071e-03
    5.95701895e-05 5.48895798e-04 -3.26531730e-03 4.54693753e-03
    7.59743387e-04 2.02035555e-03 2.78503820e-03 -5.31030493e-03
    -1.98214105e-03 -3.92889378e-05 2.25150870e-04 6.48079673e-04
    9.83119942e-04 -1.39994454e-03 6.61817787e-04 3.55934328e-03
    1.80541282e-03 4.45878686e-04 2.73818360e-03 2.49103061e-03
    5.49906865e-03 3.42725101e-03 9.83138918e-04 8.48070136e-04
    4.51269513e-03 2.26633134e-03 -1.80442713e-03 2.28682370e-03
    3.12290364e-03 8.63805239e-04 -4.39439609e-04 4.36171213e-05
    1.55316747e-03 2.31412356e-03 -4.20693505e-05 1.65664440e-03
    4.89626080e-03 3.62644438e-03 5.08730719e-03 7.08022737e-04
    3.93600762e-03 3.41007230e-03 4.80328361e-03 2.96209776e-03
    -1.94581028e-03 1.99732766e-03 -5.31464117e-04 4.94208047e-03
    3.69817438e-03 -1.63561967e-03 -6.23656728e-04 6.61127677e-04
    -2.32489081e-03 1.21558449e-04 2.80667027e-03 -3.28909885e-03
    4.73771943e-03 -2.46184273e-03 1.07439456e-03 -1.40143174e-03
    -3.13080236e-04 -7.41610012e-04 -7.28090410e-04 4.30538831e-03
    1.99901639e-03 4.34869388e-03 2.33735470e-03 1.65394135e-03
    9.20360617e-04 3.45444796e-03 -1.69231021e-03 3.68550536e-03
    2.40771216e-03 -1.97389326e-03 3.32566164e-03 -1.57537020e-03
    -9.66653461e-04 -1.37170486e-03 3.64657986e-04 2.56939977e-03
    1.11636729e-03 3.80054349e-03 -1.29723208e-04 1.88592309e-03
    -4.30471729e-03 1.87011145e-04 -8.87437549e-04 8.19198729e-04
    2.13792198e-03 1.85652624e-03 5.39885554e-03 1.12478680e-03
    -1.53610960e-03 1.76475325e-03 -1.26110401e-03 -8.50167999e-04
    1.60210801e-03 2.65014777e-03 2.42929836e-03 2.00631307e-03
    -1.04870251e-03 2.73150229e-03 -1.50060281e-03 -1.66767172e-03
    -8.00161331e-04 1.03812839e-03 2.61816382e-03 1.83918793e-03
    4.42919275e-03 -4.22922982e-04 6.59683312e-04 1.53681822e-03
    -2.16016895e-03 -1.31228194e-03 -1.22822064e-04 1.65925093e-03
    -1.76692425e-04 2.91033112e-03 1.14932703e-03 3.69833992e-03
    9.34370037e-04 -2.15021730e-03 -1.24297966e-03 1.07766280e-03
    4.35357360e-04 -1.63925113e-03 2.66311085e-03 3.69816925e-03
    6.04829984e-03 1.64159620e-03 2.70417915e-03 2.64704553e-03
    5.59232710e-03 -2.91528343e-03 -1.72378647e-03 1.63508265e-03
    -6.32336712e-04 3.64414975e-03 -3.11641674e-03 -2.47571315e-03
    1.45869635e-04 -8.49893200e-04 -2.08815746e-03 -4.92627826e-03
    -3.16022360e-03 -4.46837774e-04 5.15719503e-03 2.50406377e-03
    4.55483608e-03 2.60651507e-03 5.61032735e-04 -6.39575068e-03
    5.39862667e-04 2.17781402e-03 4.06491663e-03 6.85973465e-03
    7.93936139e-04 4.44412231e-04 3.10824229e-03 5.06122550e-03
    -1.07875909e-03 -3.46974848e-04 1.89185806e-03 1.39362423e-03
    3.29345930e-03 -2.60894164e-03 9.53138166e-04 3.69188073e-03
    4.88042179e-03 6.05306937e-04 -8.20206187e-05 3.90453613e-04
    -1.24727795e-03 5.02802664e-03 5.17569063e-03 2.92120455e-03
    2.95892218e-03 3.49528622e-03 -1.73365942e-03 -1.46208925e-03
    -5.40507783e-04 -2.58854497e-03 -2.95260339e-04 5.11543243e-04
    8.84051042e-05 3.63135780e-03 5.14949299e-03 8.12678423e-04
    1.58785078e-05 1.80115073e-03 3.88595712e-04 3.52937542e-03
    -1.26705936e-03 8.68923089e-05 8.97690334e-05 2.03888072e-03
    -3.29674309e-04 -1.30365614e-03 2.89375032e-03 -9.24587133e-04
    7.40711205e-03 3.45546938e-03 2.30319798e-03 4.82247473e-04
    2.12012697e-03 -2.62035610e-04 -2.07383931e-03 -8.89809104e-04
    -2.12900015e-03 2.66631576e-03 3.09271086e-03 5.16096363e-04
    -4.70366322e-05 3.10920575e-03 -8.33399477e-04 -2.35572667e-03
    2.55331118e-03 1.60300173e-03 9.56809148e-03 4.46323538e-03
    5.14463102e-03 2.01568124e-04 -1.07888391e-05 -1.98208960e-03
    -2.52997270e-03 -1.69242092e-03 -4.34043538e-03 4.29068925e-03
    3.27004679e-03 1.05186901e-03 4.09854722e-04 -1.20774028e-03
    -3.07772052e-03 -1.74874358e-03 -3.28901777e-04 -1.82110025e-03
    4.93533211e-03 4.19607293e-03 4.36126534e-03 2.84989970e-03
    5.22706023e-06 -3.74263036e-03 -3.31900106e-03 2.66922638e-04
    -1.63816963e-03 5.98663604e-03 -6.36091805e-04 2.40937877e-03
    -2.29788059e-03 -4.95945662e-03 -2.93104607e-03 3.22660489e-04
    1.14319823e-03 -1.24798145e-03 8.30855127e-03 3.83648276e-03
    6.47621229e-03 2.89901014e-04 -2.66471296e-03 -4.18573181e-04
    -1.26006489e-03 -2.04950478e-03 -2.85815005e-03 9.60865349e-04
    1.38209341e-03 3.67000903e-04 3.73155950e-03 1.68141245e-03
    -3.08270147e-03 2.65611592e-03 5.58246253e-03 3.41178267e-03
    2.83638504e-03 1.79139175e-03 1.35361310e-03 1.69417693e-03
    8.80406064e-04 -2.29992298e-03 -3.21159023e-03 -1.16518306e-04
    -1.35280925e-03 7.79709406e-03 2.87033943e-03 2.26771669e-03
    -9.88738029e-04 -3.64694861e-03 -4.26928699e-03 -2.55448441e-03
    3.39098461e-03 3.14359763e-03 5.11757517e-03 2.41543772e-03
    6.05814299e-03 1.60451431e-03 -1.73732161e-03 -5.71490452e-03
    -6.87256164e-04 1.12082227e-03 -4.30182350e-04 -7.59568298e-04
    8.18248198e-04 4.01820475e-03 -5.69535128e-04 2.10924260e-03
    -7.37786875e-04 7.10941269e-04 1.39548280e-03 5.11207443e-04
    3.86106689e-03 -4.02839901e-03 -1.23383506e-04 -4.58314642e-03
    -8.44573544e-04 3.69652495e-04 -2.43536429e-03 2.12263037e-03
    3.83726147e-05 1.70181424e-03 1.00830465e-03 1.90697226e-03
    -1.97822298e-03 6.60732447e-04 -1.91423041e-03 -4.21590777e-03
    -4.32320143e-04 -4.49647754e-03 3.33611359e-04 -3.17377527e-03
    -1.88910787e-03 -4.02478455e-03 -1.24831323e-03 -4.30305162e-03
    2.44288985e-03 1.44183240e-03 4.72035201e-04 2.92409048e-03
    4.03195294e-03 1.49545050e-03 -2.43230187e-03 -2.20091781e-03
    3.10731214e-03 7.39896554e-04 -1.62132681e-04 1.74119981e-04
    3.41166020e-03 4.74294834e-03 -5.48269949e-04 -1.44310703e-03
    -2.29588361e-03 6.20830047e-04 -4.17807233e-03 -5.56220126e-04
    -2.33046245e-03 9.09388706e-04 3.68727837e-03 3.55076999e-03
    -2.57118745e-03 -2.23512831e-03 -2.74405489e-03 -7.18507031e-03
    -3.39792646e-03 -2.48431996e-03 6.51845708e-04 4.03073989e-03
    2.00551236e-03 -1.81734725e-03 -1.80684193e-03 -4.67748335e-03
    -5.72667457e-04 7.19457166e-04 9.02885862e-04 4.19586617e-03
    -1.17323396e-03 1.45506626e-03 2.06804718e-03 1.94003736e-03
    -1.78418949e-03 -3.65582318e-03 5.25569660e-04 -3.53437994e-04
    2.69590644e-03 1.87281205e-03 4.91678901e-03 2.46863486e-03
    1.17257319e-03 -4.17803880e-03 -4.34223376e-03 -2.08637770e-03
    -2.06863461e-03 1.12130924e-03 3.25488625e-03 9.78275551e-04
    9.31529503e-04 1.80390687e-03 -4.37596859e-03 -5.40472381e-03
    -2.69680144e-03 -6.30947156e-03 -3.15516867e-04 7.73303071e-03
    2.41567497e-03 4.05096798e-04 8.91917327e-04 -4.50892514e-03
    -1.18957926e-03 1.49171462e-03 1.49610720e-03 2.26280536e-03
    3.94214736e-03 3.85102374e-03 7.26780389e-04 -1.26967288e-03
    -2.37232004e-03 -3.11965053e-03 -2.67545856e-03 6.43790467e-04
    2.08004005e-03 -3.53896036e-03 1.13141222e-03 1.32111041e-03
    -3.42905708e-03 -3.03124450e-03 -1.73977134e-03 -8.48259893e-04
    -1.68819283e-03 2.06688722e-03 8.85055587e-03 2.67697102e-03
    -6.07627910e-04 -1.36042689e-03 -2.34751171e-03 -4.51020850e-03
    -9.10845294e-04 2.92585231e-03 6.77549455e-04 -8.68383155e-04
    2.53523164e-03 -2.37738318e-03 -4.49553318e-03 -3.74125154e-03
    -4.92976559e-03 -5.37121296e-03 -1.54731516e-03 9.36682511e-04
    5.40616049e-04 7.08147418e-05 -4.74182423e-04 -6.68151653e-04
    -3.15368362e-03 -3.85185331e-03 -3.76882264e-03 -4.69091290e-04
    2.89549562e-03 4.99180565e-03 5.36474213e-03 3.48426431e-04
    -3.72814393e-04 -1.86637626e-03 -1.58891000e-03 -7.79667869e-04
    4.40029800e-03 1.41780498e-03 3.93650122e-03 1.81632570e-03
    -3.62038263e-03 -3.64983431e-03 -1.52807776e-03 1.17752561e-03
    -2.16572289e-03 3.94214317e-03 4.75543225e-03 7.08836317e-03
    4.88761300e-03 -3.58987460e-03 -2.72622705e-03 1.23142891e-04
    -9.28309688e-04 -1.19689421e-03 -1.20056873e-04 6.85333100e-04
    4.25983919e-03 5.18288929e-03 9.96337505e-04 -2.15208880e-03
    -4.02839301e-04 -5.22500835e-04 6.39710401e-04 1.34562506e-04
    -4.45890211e-04 4.19713184e-03 4.94901277e-03 4.19623638e-03
    -3.16662539e-04 -7.82305142e-04 -1.58451253e-03 -2.64165178e-03
    -2.81281158e-04 -2.71172644e-06 6.52124826e-03 7.72884069e-03
    -1.09471835e-03 -5.13052728e-05 -1.43419404e-03 4.28094558e-04
    -1.75607193e-03 -2.11251969e-03 3.95507057e-04 5.45313535e-03
    7.24511780e-03 8.31026526e-04 -8.87839706e-04 2.28537736e-03
    -2.32096715e-03 2.64577917e-04 3.78258759e-04 -4.38445248e-04
    4.46687732e-03 5.47600165e-03 5.29306429e-03 1.24275999e-03
    -4.28317668e-04 -4.11684252e-03 -8.90568026e-06 3.48489801e-03
    2.90318648e-03 5.13139414e-03 8.18709750e-03 2.25813501e-03
    1.90624094e-03 -3.98960226e-04 -1.78806926e-03 -4.94275650e-04
    -1.38240226e-03 1.84305513e-03 1.01572368e-03 2.10044836e-03
    -1.08826021e-03 -1.69931911e-03 -4.98862180e-04 -8.15046194e-04
    1.35523186e-03 4.22426220e-03 5.30132465e-03 5.61553752e-03
    7.77726015e-03 1.52555993e-03 1.97461410e-03 5.58261410e-04
    -1.75873830e-03 7.61088973e-04 3.22652119e-03 3.15610785e-03
    2.77058361e-03 3.00433673e-03 -8.66096292e-04 1.00552512e-03
    1.30837216e-04 -3.74943670e-03 1.09485467e-03 1.24727678e-03
    3.92457424e-03 3.02860932e-03 3.07980017e-03 -3.08800736e-05
    1.38654083e-03 -1.48280163e-03 -1.85134215e-03 1.19974010e-03
    5.19115012e-03 4.70179506e-03 2.98993150e-03 4.93261218e-03
    2.59254896e-03 4.26832848e-04 -6.94568502e-04 3.05285212e-04
    2.83527351e-03 3.85627011e-03 6.89318078e-03 2.86410633e-03
    4.14028065e-03 3.20669170e-03 1.91140396e-03 1.76686933e-03
    -4.50776471e-03 1.50575733e-03 1.13622961e-03 1.35996589e-03
    4.47057700e-03 1.60868175e-03 1.03048817e-03 9.43025632e-04
    -2.93471920e-03 -5.78341680e-03 3.47159112e-05 -2.07815133e-03
    -3.54123721e-03 2.81545101e-03 3.79838502e-06 8.15591047e-05
    7.89886748e-04 -3.58835328e-03 3.40191228e-03 3.14676668e-03
    1.51649187e-03 3.46570020e-03 5.15032699e-03 4.81182244e-03
    3.16970423e-03 4.00594389e-03 4.75285854e-03 2.05977960e-03
    9.17564495e-04 -1.59766327e-03 1.16777269e-03 2.76544801e-04
    2.39625829e-03 -1.66939513e-03 1.88261329e-03 2.80402927e-03
    -4.51997097e-04 2.61749513e-03 1.43585796e-03 1.63422339e-03
    -3.64901708e-03 -1.31764181e-03 -1.11517156e-05 1.05529861e-03
    5.94252255e-04 1.96441892e-03 4.52721678e-03 4.52414947e-03
    5.61569631e-03 -1.13993359e-04 2.67344574e-03 3.23276478e-03
    2.64275982e-03 2.39039212e-03 1.66520616e-03 2.65135872e-03
    6.40954066e-04 2.59787054e-03 -3.03005963e-03 7.78550922e-04
    4.76437446e-04 2.77920347e-03 1.96352717e-03 1.59512379e-03
    7.58840179e-04 2.26622098e-03 5.24500804e-03 -4.55462985e-04
    2.85682734e-04 4.24903911e-03 5.18580759e-03 1.87077763e-04
    1.68156601e-03 3.56724649e-03 3.80614144e-03 4.36309353e-03
    1.87637412e-03 1.79669133e-03 1.71461818e-03 2.65397807e-03
    1.17431954e-03 1.59513485e-03 1.29418797e-03 9.66250838e-04
    4.54847614e-05 -1.80152812e-04 1.97106157e-03 5.74700534e-04
    2.39471975e-03 2.39944458e-03 1.35547528e-03 -4.13653441e-04
    -4.94062493e-04 1.96931278e-03 9.63529921e-04 2.25757412e-03
    3.55295022e-03 4.30203741e-03 9.67409869e-04 -1.70591346e-03
    -3.05671920e-03 -4.58656857e-03 -2.99435109e-03 -3.77349975e-03
    4.31738887e-03 2.82318308e-03 4.56580939e-03 -1.52089153e-04
    -5.14505606e-04 4.42629098e-04 8.13003106e-04 4.49372019e-04
    7.82172778e-04 1.93850289e-03 1.31779176e-03 3.52101075e-03
    1.36102003e-03 -9.67873028e-04 1.18949858e-03 -1.59352017e-03
    1.99497576e-04 3.29973432e-03 -2.99245678e-03 -1.64177641e-03
    2.10734969e-03 4.03350947e-04 -4.25486406e-03 -3.23721464e-03
    -3.80338728e-03 -1.85708946e-03 2.41690315e-03 5.50915813e-03
    3.79269011e-03 3.91600560e-03 -2.27118074e-03 -2.61057029e-03
    -3.04810907e-04 -1.83799735e-03 1.52568682e-03 6.09249249e-03
    -3.07831494e-03 8.75813887e-04 4.37221304e-03 -1.94367743e-03
    -1.66512304e-03 8.68410221e-04 -2.85304995e-04 4.00299998e-03
    1.74294936e-03 -1.76887683e-04 5.23067371e-04 7.17685616e-04
    -2.29889690e-03 -3.26010445e-03 -2.27934518e-03 2.66988203e-03
    3.23236384e-03 2.58103083e-03 6.15199050e-03 2.70494027e-03
    3.78980447e-04 -4.73415246e-03 -3.07238824e-03 -4.39484109e-04
    -1.65007391e-03 4.85437177e-03 1.85404636e-03 -2.54254905e-03
    -1.65235670e-03 1.07044878e-03 -2.62903492e-03 -3.66954762e-03
    -1.37415109e-03 3.80121986e-03 5.24084410e-03 -1.36484101e-03
    4.03738534e-03 9.95005597e-04 1.10122876e-03 -3.22178076e-03
    3.12830263e-04 5.72853460e-05 1.00034848e-03 1.78352557e-03
    5.82764065e-03 4.24397737e-03 1.75630534e-03 2.81847292e-03
    -8.70982592e-04 9.46851389e-04 1.58000574e-03 -7.96798966e-04
    1.64140627e-04 3.85611644e-03 -7.29946012e-04 1.01260783e-03
    2.82741059e-03 7.16095790e-04 2.98670115e-04 6.88275555e-04
    1.40790700e-03 7.97360903e-04 -4.30970191e-04 2.49555917e-03
    1.37775252e-03 3.17419739e-03 1.09182345e-03 5.00570098e-03
    3.50498757e-03 -4.19610500e-04 1.17046686e-04 -4.82998835e-03
    -1.87489914e-03 2.91501009e-03 2.89904117e-03 4.13929392e-03
    -8.54382291e-04 -2.54231715e-03 -2.31239619e-03 2.03853659e-03
    2.55053816e-03 5.78898413e-04 1.90689549e-04 2.15939875e-03
    -1.09408604e-04 -6.29499409e-05 -6.65133644e-04 -4.72668704e-04
    7.66636152e-03 2.70692282e-03 7.31036020e-03 -1.87059966e-04
    1.47976750e-03 -6.21188490e-04 2.79298006e-03 -1.43200799e-04
    -3.47459060e-03 5.72884048e-04 -5.34612825e-03 -1.53937482e-03
    9.95041337e-04 1.78460381e-03 2.87642074e-03 1.81294675e-03
    1.07515429e-03 1.56074599e-03 6.96530147e-03 3.33177195e-05
    2.78104236e-03 -4.85513912e-04 2.91675795e-03 1.47244218e-03
    -4.20064287e-04 1.21695152e-03 1.20131054e-03 5.60576236e-03
    -2.05135485e-03 2.43386510e-03 -2.59323791e-03 -1.47414685e-03
    3.04625952e-04 6.69401372e-04 1.51894952e-03 2.69398838e-03
    7.48268096e-03 -8.41689878e-04 3.41824186e-03 -1.18753780e-03
    3.34049866e-04 2.03759363e-03 -1.23406702e-03 3.70339811e-04
    2.78964057e-03 5.07325679e-03 -3.00624012e-03 1.31300965e-03
    -2.03919451e-04 6.75519288e-04 -7.70644925e-04 5.23091585e-04
    3.24083609e-03 2.26731598e-03 8.00135080e-03 -2.23638723e-03
    4.69795661e-04 3.26125300e-04 1.21663779e-03 2.03319034e-03
    -1.21281686e-04 2.90562981e-03 1.93300506e-03 7.69054424e-03
    -1.74262607e-03 1.98847847e-03 -2.36331508e-03 -7.44790595e-04
    -9.47536100e-05 -3.90255824e-04 1.38173881e-03 9.12997464e-04
    5.21111535e-03 1.92820455e-03 8.19377787e-03 1.38644176e-03
    -8.95548728e-05 -6.54892705e-04 -9.53872397e-04 2.20873510e-03
    -3.64139734e-04 3.44215287e-03 -1.54642074e-03 -2.04545911e-03
    -2.00556288e-03 4.44971010e-06 -8.17856286e-04 -1.10704266e-03
    -1.87594257e-03 -2.87388312e-03 2.86649494e-03 -1.14544283e-03
    6.21989509e-03 1.98329496e-03 2.22312054e-03 5.36497333e-04
    5.45556482e-04 2.84724031e-03 2.96092563e-04 3.76772624e-03
    5.23111410e-03 4.97401226e-03 5.64447662e-04 2.25132331e-03
    1.18972932e-03 -2.70234392e-04 -7.06935418e-04 -1.82165590e-03
    1.91753276e-03 1.13846210e-03 2.72481120e-03 5.97288774e-04
    2.01279227e-06 -2.41650705e-04 -5.69328433e-04 -1.12813315e-03
    -3.87484150e-04 -1.29293301e-03 -2.34461040e-03 2.00518849e-03
    8.47840973e-04 9.61878337e-04 1.39326334e-03 -2.21679104e-03
    -2.42240238e-03 -2.99071288e-03 -1.03788963e-03 -6.43667951e-03
    -5.32328209e-04 -1.93095836e-03 -1.01998961e-03 -7.21597055e-04
    -1.94299605e-03 1.34804007e-03 1.06112182e-03 2.27678055e-03
    3.99589026e-03 2.82287854e-03 6.81798207e-04 4.51166241e-04
    -1.65670738e-03 -3.01371329e-03 1.40567514e-04 2.08876911e-03
    1.23954506e-03 2.30988231e-03 4.12205234e-03 -4.71739273e-04
    1.85977167e-03 -2.22899183e-03 -1.78199122e-03 -1.04028336e-03
    -1.16041466e-03 4.72836662e-04 2.34490074e-03 -3.99029395e-03
    -5.31242602e-03 -9.10601346e-04 -1.29148806e-03 -6.07191585e-04
    -2.13605980e-03 1.56739983e-03 8.28378834e-04 2.35235714e-03
    4.94570646e-04 -4.79338458e-03 -1.40375792e-04 -1.74715533e-03
    -4.16843407e-03 -3.15186358e-03 -1.45483844e-03 -1.82032608e-03
    3.16480873e-03 2.50913948e-03 8.80562147e-05 2.11057649e-03
    -4.38973680e-03 -6.61463593e-04 -4.25139116e-03 -4.38334281e-03
    3.24757537e-04 1.10467272e-02 3.64292553e-03 -3.37484584e-04
    1.08777056e-03 -3.42234620e-03 -2.53713527e-03 -2.65464094e-03
    3.68141773e-04 8.89298855e-04 3.23653268e-03 2.71682814e-03
    -4.07714536e-03 -1.42581749e-03 -3.27609433e-03 5.47980890e-04
    -1.92374003e-03 1.33765675e-03 1.17903692e-03 3.79151851e-03
    6.87314244e-03 1.70879613e-03 2.48726434e-03 -2.46946911e-05
    -7.86190212e-04 -2.83489516e-03 -2.89948750e-03 1.19775871e-03
    7.60096312e-03 2.04741745e-03 -3.49303149e-03 -2.26228754e-03
    -3.71733122e-03 -4.57365811e-03 -8.70451622e-04 -6.41297491e-04
    -7.66142039e-04 2.21863412e-03 2.74338620e-03 -2.89339130e-03
    -6.92323223e-03 -5.17592160e-03 -1.67733151e-03 7.71877312e-05
    -1.13635685e-03 7.96260545e-04 6.36043493e-03 6.50444161e-03
    2.16713198e-03 -2.06506753e-04 -3.44340317e-03 -3.93863628e-03
    4.21849109e-04 -2.12409138e-03 2.22792360e-03 6.45474624e-03
    5.09971147e-03 2.54216581e-03 -1.48650492e-03 -4.34576767e-03
    -5.95870602e-04 1.41539809e-03 3.84469703e-03 2.26067216e-03
    5.81751950e-03 3.31683899e-03 -3.50655918e-03 -5.10721887e-03
    -1.79585873e-03 3.07847746e-04 -4.28407977e-04 2.75429199e-03
    5.45912003e-03 2.06178939e-03 7.26386672e-04 -7.70855974e-03
    -6.54470176e-03 -2.34332541e-03 -2.09689559e-03 7.71166349e-04
    1.59381004e-03 2.61211162e-03 7.34806666e-03 4.19642311e-03
    9.58660094e-04 -1.57717976e-03 -3.21881357e-03 -7.07743166e-04
    -1.76738122e-05 -9.94816422e-04 2.80256360e-03 1.01973396e-03
    -1.26729056e-03 -2.26897397e-03 -1.17870793e-03 -1.42081326e-03
    -4.76031273e-04 -6.78381301e-04 2.66292598e-04 1.65384659e-03
    -1.34983193e-03 2.90400186e-03 -3.36191198e-03 -5.40372333e-04
    -1.30112329e-03 1.94756081e-03 -1.31844718e-03 -6.94138987e-04
    3.49842856e-04 5.98998321e-03 6.84382860e-03 -1.14108816e-05
    9.98464297e-04 2.41956231e-03 -5.43639821e-04 1.32818401e-04
    4.81912022e-04 2.09384598e-03 -1.43207691e-03 2.79569649e-03
    -1.48629758e-03 -6.82581624e-04 -1.08762621e-03 3.54408124e-03
    3.70185566e-03 4.22939146e-03 2.56670453e-03 8.85982811e-03
    1.02660516e-02 1.21900323e-03 5.38722961e-04 1.71929365e-03
    -1.82796060e-03 -2.55473284e-03 -3.29220179e-03 7.58930924e-04
    2.73812533e-04 4.97082714e-03 -4.37712017e-03 -3.98909859e-03
    -8.12467537e-04 -3.03469948e-03 7.17275019e-04 3.36380862e-03
    5.41992206e-03 2.57081632e-03 4.61132405e-03 -1.88986363e-03
    -2.95987539e-03 -2.00662133e-03 -1.43624458e-03 2.30670860e-03
    1.99397304e-03 5.31388866e-03 6.40679244e-03 1.00565022e-02
    -4.69286274e-03 -2.83699692e-03 -1.72938383e-03 -1.72914483e-03
    4.52000787e-03 7.41408207e-03 1.11884335e-02 1.17781134e-02
    8.38862453e-03 -2.35393364e-03 -3.92735517e-03 -1.66506536e-04
    -1.36221934e-03 2.78374273e-03 5.41632157e-03 6.62082853e-03
    4.02344437e-03 1.52626459e-03 -1.75718963e-03 -3.25249927e-03
    -3.02118133e-03 -2.70351477e-04 5.12458943e-03 6.41641207e-03
    7.83299003e-03 5.86822163e-04 2.92643206e-03 -2.62357830e-03
    -2.99397181e-03 -1.87040935e-03 5.33338054e-04 5.38648991e-03
    6.03836263e-03 9.68251005e-03 7.73999654e-03 2.04112055e-03
    -5.18020848e-03 -4.25646640e-03 -4.71399951e-04 2.53232615e-03
    6.48216344e-03 5.78204729e-03 1.05931070e-02 7.15703843e-03
    -3.11255309e-04 -6.40843203e-03 -4.64371266e-03 -2.32246309e-03
    1.09675236e-03 3.13403667e-03 3.81384534e-03 3.66318389e-03
    4.57229232e-03 4.18044487e-03 -1.85317220e-03 -2.35693343e-03
    -3.42423562e-04 4.05199174e-03 2.14907550e-03 1.72342698e-04
    -6.61368773e-04 -2.58396904e-04 1.50944758e-03 -3.04610934e-03
    -1.93727188e-04 2.51790462e-03 3.71667760e-04 2.81113526e-03
    4.00254177e-03 6.67592743e-03 1.02850432e-02 9.99337644e-04
    -4.70079714e-03 -5.55464113e-03 -3.82698327e-03 -7.22559751e-04
    1.16213853e-03 1.18491577e-03 3.73478350e-03 -7.67628779e-04
    -2.65626260e-03 -5.08303661e-03 -4.99544013e-03 -2.38078079e-04
    3.39154666e-03 3.93820554e-03 3.67962383e-03 2.79529882e-03
    -4.14770516e-03 -1.70966180e-03 -1.61649066e-03 8.66526854e-04
    2.18153954e-03 1.70666876e-03 2.73637963e-03 3.98062915e-03
    4.18309355e-03 -2.73451232e-03 6.10122115e-05 1.13605012e-04
    4.06013988e-03 6.27421483e-04 1.70153438e-03 3.72748822e-03
    6.36840332e-03 4.51123668e-03 -4.02805582e-03 -1.16876850e-03
    -2.62865890e-03 2.65800976e-04 2.36971001e-03 2.04068795e-03
    5.13003860e-03 7.50207994e-03 4.60984465e-03 -6.93535199e-04
    -5.29178942e-05 1.86447112e-04 3.68725415e-03 2.05210387e-03
    -1.01751881e-04 5.11999882e-04 -1.60455631e-04 2.16064346e-03
    -1.42520689e-03 5.86746377e-04 2.61206692e-03 4.18738928e-03
    -7.95978995e-04 -1.57848583e-03 -7.90816674e-04 -4.15382860e-03
    1.76493355e-04 3.67197121e-04 1.98712107e-03 3.12978728e-03
    3.30563844e-03 -1.95474154e-03 5.91223012e-04 2.35338788e-03
    4.47089830e-03 5.31084882e-03 3.77696566e-03 1.99446571e-03
    3.01430305e-03 4.35843132e-03 -2.69598706e-04 2.51107197e-03
    2.30850047e-03 -1.11886948e-04 5.20454347e-03 3.89564363e-03
    2.19424046e-03 3.73187521e-03 4.12997883e-03 1.16255088e-03
    -1.91992079e-03 -5.56537998e-04 -3.96737317e-03 -7.33839930e-04
    -1.09291472e-03 1.56818808e-03 2.24750140e-03 1.86587323e-03
    -1.83679711e-03 4.57426184e-04 1.20765530e-03 -3.99979390e-03
    -2.43016426e-03 -3.18002887e-03 -2.20884522e-03 6.89150358e-04
    3.15908459e-03 4.87417215e-04 3.95158865e-03 8.44189199e-04
    -4.41309530e-04 3.12018953e-03 6.95322597e-05 -1.60996016e-04
    3.06213205e-03 3.79900448e-03 2.58610700e-03 5.03851799e-03
    2.15091463e-03 1.19948888e-03 1.68944150e-03 -1.78174279e-03
    6.80547440e-04 1.81791338e-03 3.45855742e-03 4.49965522e-03
    -1.61033403e-03 -1.22277765e-03 -4.57904162e-03 -1.06307014e-03
    -1.98806613e-03 -3.23657738e-03 -1.50312076e-03 8.51953053e-04
    -1.55210771e-04 -1.21475058e-03 -5.57496329e-04 -7.66061828e-04
    -2.82645080e-04 -7.22341589e-04 3.97195527e-03 1.42570457e-03
    1.08228379e-03 1.03843387e-03 9.30540322e-04 -1.35175687e-05
    -5.01805043e-04 5.31395082e-04 7.38620758e-04 1.08404842e-03
    -2.21810609e-04 4.38635179e-04 2.61685764e-03 -8.52658879e-04
    -6.16869002e-05 -6.45760738e-04 -1.87524070e-03 1.56802335e-03
    4.00240347e-03 2.54271296e-03 1.60200149e-03 3.23168258e-03
    2.30662525e-03 1.70355826e-03 -1.52298063e-03 -4.88953572e-03
    -1.73422357e-03 2.88272719e-03 9.41417704e-04 2.05697329e-03
    3.11556924e-03 4.93051065e-03 3.52978590e-03 -2.65911873e-03
    -3.55215510e-03 -7.05348840e-03 -1.90119317e-03 1.17525912e-03
    1.22338650e-03 4.02572937e-03 1.52447086e-03 1.82667383e-04
    -6.30657305e-04 -3.90413287e-03 1.53220049e-03 3.99610586e-03
    7.23006437e-04 3.26294824e-03 4.88948915e-03 3.49736726e-03
    3.82405426e-03 -4.14451875e-04 1.16430724e-03 -1.16750016e-03
    -2.35488825e-03 -2.03533564e-03 2.38436507e-03 3.91753437e-03
    3.16370046e-03 1.45204272e-03 -2.33441405e-03 -1.21147104e-03
    -8.22972041e-03 -2.88945739e-03 7.65741803e-04 1.47550541e-03
    3.07590584e-03 -1.91953048e-04 2.51847901e-04 3.39759444e-03
    5.18542342e-03 -1.37500663e-03 8.88244176e-05 2.11481994e-04
    2.91958824e-03 8.37906613e-04 1.08770459e-04 3.26757994e-03
    1.15879904e-03 3.02419788e-03 -3.62382270e-03 -4.22139326e-03
    -1.66500313e-03 1.00682059e-03 1.11089239e-03 -4.61132207e-04
    1.71177671e-03 3.78355361e-03 9.66468733e-03 4.65120142e-03
    6.40630780e-04 1.86519511e-03 2.23765010e-03 6.52487506e-04
    -1.15806900e-03 2.23836512e-04 2.57952139e-03 4.61551314e-03
    -4.02343459e-03 -1.51457440e-03 -5.08074882e-04 9.32712341e-04
    -2.37220735e-03 -2.51959835e-04 1.39538106e-03 -6.62045844e-04
    4.63358220e-03 -2.05205916e-03 -8.80114094e-04 1.35247654e-03
    2.49055400e-03 7.49584404e-04 -2.96985410e-04 3.59180733e-04
    3.31769552e-04 6.03627833e-03 5.13203023e-03 -4.90704435e-04
    9.55196912e-04 1.48238114e-03 -1.22442667e-03 1.67641649e-03
    5.20039769e-03 1.89949432e-03 3.63855157e-03 2.92688678e-03
    -1.10167009e-03 1.35293941e-03 3.63261113e-03 3.89003148e-03
    2.46658968e-03 2.93180812e-03 -2.28400482e-03 2.42855446e-03
    -3.19965114e-03 -2.34292960e-03 2.08994397e-03 2.89944047e-03
    2.75186240e-03 2.18587066e-03 1.16637978e-03 -2.43512867e-03
    -1.21363276e-03 -1.61073392e-03 3.56260198e-03 3.96577967e-03
    3.73749109e-03 1.62936188e-03 3.73280933e-03 5.27804717e-03
    4.17387746e-05 -1.92735140e-04 -4.86864708e-03 -2.39509111e-03
    3.48306587e-03 4.08753939e-03 4.10612021e-03 4.51751612e-03
    1.57751446e-03 -1.25383039e-03 3.37099133e-04 -1.99268525e-03
    3.15906457e-03 3.77374887e-03 3.37242684e-03 3.22198239e-03
    -6.98186341e-05 -3.74779251e-04 1.20708509e-03 -1.09273696e-03
    -3.80902435e-03 -1.42603635e-03 -8.44240189e-04 2.25789772e-04
    2.39200448e-03 -3.22121289e-03 -1.15249865e-03 -1.00125489e-03
    -1.46271766e-03 -6.32458413e-03 -9.79962861e-05 -3.88115831e-03
    -1.46528590e-03 -1.52542969e-04 4.77896910e-03 2.26642634e-03
    1.40324130e-03 -4.69415565e-04 -2.61707325e-03 -2.04946916e-03
    -1.90303370e-03 2.85696788e-05 4.48376779e-03 3.01318942e-03
    -8.49210133e-04 -2.85170856e-03 -1.85979635e-03 2.94948695e-03
    -8.04578885e-04 -4.76191100e-03 -2.07249471e-03 3.22636520e-03
    -2.08170875e-03 -1.06704235e-03 -2.23208235e-06 -1.63227858e-04
    3.05630988e-03 -5.78282110e-04 -4.23696963e-03 4.29442909e-04
    9.30003182e-04 2.25539581e-04 -1.41299632e-03 -3.46139772e-04
    6.25682995e-04 4.23994241e-03 -1.73957169e-03 -5.30156679e-03
    -8.42639129e-04 7.95036962e-04 1.75357086e-03 -1.53071911e-03
    -2.61087995e-03 -4.86597273e-04 2.28577200e-03 8.21539259e-04
    -4.67073964e-03 2.73852318e-04 3.76783009e-03 2.00658664e-03
    1.05168445e-04 7.73723878e-04 -2.18253746e-03 -3.18933208e-03
    -4.83416626e-03 -3.86469695e-03 1.73114124e-03 4.73328726e-03
    1.29708613e-04 -1.55338016e-03 -1.53552188e-04 5.21725626e-04
    4.82196501e-03 -1.23463135e-04 -3.03715817e-03 -1.44649210e-04
    1.53197849e-03 -9.46142536e-04 -4.99610498e-04 1.94385217e-03
    1.61297806e-03 1.92774564e-03 6.10103225e-03 3.95322591e-03
    2.91426876e-03 2.89185857e-03 1.80598581e-03 -3.19666159e-03
    -3.06002237e-03 -1.82798551e-03 2.22437573e-03 -1.85418176e-03
    -1.42933859e-03 1.13544031e-03 4.67573246e-03 -8.85406975e-04
    -5.30542433e-03 -4.31041047e-03 5.18250221e-04 5.68524143e-03
    2.81968014e-03 -2.98511568e-05 6.22449210e-04 3.68193956e-03
    -3.33295297e-03 1.48928410e-03 1.21087488e-03 -1.32925998e-04
    1.87171146e-03 6.35008607e-03 2.65455386e-03 -8.23227514e-04
    -1.78804668e-03 -4.58475575e-03 2.07741046e-03 7.94931606e-04
    3.24014830e-03 6.73128339e-03 5.37624257e-03 1.90802431e-03
    -1.01508747e-03 -3.98675213e-03 -1.26181694e-03 -3.09509691e-03
    -1.76805048e-03 -1.73649983e-04 -9.33308853e-04 2.53324932e-03
    -1.96055998e-03 -3.64487944e-03 9.84428567e-04 2.05000350e-03
    1.18400576e-03 4.40838328e-03 2.68412940e-03 3.91293177e-03
    6.23045396e-03 4.63527482e-04 -4.93912818e-03 -4.30986838e-05
    -2.96409777e-03 7.90459744e-04 5.65227529e-04 2.83172331e-03
    4.86339210e-03 3.26097710e-03 2.79573404e-04 -8.03526666e-04
    -4.64400789e-03 -2.42413138e-03 1.42119825e-03 -1.75238377e-03
    -2.63909204e-03 -3.82570876e-03 -1.61558832e-03 -2.93036341e-03
    -2.79402500e-03 -3.92959639e-03 -4.32190456e-04 2.10989965e-03
    4.11937945e-03 2.88522313e-03 8.04131012e-03 6.09702338e-03
    2.97824707e-04 -1.22996606e-03 -1.93756772e-03 -2.23216554e-03
    3.52717773e-03 3.86256468e-03 -2.69186334e-04 9.87097342e-03
    -2.86874565e-04 -4.54744644e-04 -2.99898587e-04 -4.82337549e-03
    -1.38676737e-03 1.07526896e-03 -6.21405838e-04 -2.48579052e-03
    -3.15236277e-03 3.41367396e-03 -1.74816826e-03 -2.08294089e-03
    -3.34385689e-03 1.31376414e-03 1.58567599e-03 2.40170257e-03
    7.81621726e-04 2.86826957e-03 8.04037694e-03 -1.00894342e-03
    -3.17113753e-03 -9.57067183e-04 -4.20021871e-03 2.31595850e-03
    1.73972966e-03 -2.37806258e-03 2.66125612e-03 1.04518863e-03
    5.35330968e-04 -9.58753226e-04 -6.72045583e-03 1.48803554e-03
    2.90139532e-03 4.11731424e-03 4.11543390e-03 7.51660764e-03
    7.86089711e-03 2.92562763e-03 -2.04995988e-04 -8.90017196e-04
    -2.90646730e-03 1.09249924e-03 1.64907100e-03 3.35571473e-03
    3.74592026e-03 5.85775683e-03 -7.71992700e-03 -6.78105233e-03
    -3.82787548e-03 -3.79479164e-03 3.22523108e-03 6.03366224e-03
    9.19038150e-03 7.40404194e-03 4.66302969e-03 -6.63150614e-03
    -5.70801366e-03 -4.74738143e-03 -1.66076457e-03 1.45010476e-04
    2.67250417e-03 7.13763759e-03 1.32135663e-03 5.52149536e-03
    -3.84545932e-03 -3.45091126e-03 -3.42500722e-03 -3.14502860e-03
    1.23858487e-03 8.05997942e-03 1.48509471e-02 4.45061643e-03
    4.69680224e-03 -6.09391788e-03 -4.66446532e-03 -4.66335844e-03
    3.03839799e-03 5.11541730e-03 6.51142374e-03 8.26783944e-03
    1.10564008e-02 2.22648610e-03 -2.47960910e-03 -1.98366563e-03
    1.43008283e-03 2.68223300e-03 4.39516269e-03 4.83048195e-03
    6.86832564e-03 3.73823778e-03 -2.87094666e-03 -4.10935655e-03
    -2.76833889e-03 7.32034154e-04 -8.27808457e-04 9.76308191e-04
    4.69631841e-03 8.69722478e-03 1.26820114e-02 1.21379686e-04
    -3.31819244e-03 -1.98924914e-03 -1.80789479e-03 -6.30617607e-04
    2.63969676e-04 1.75588473e-03 2.82404060e-03 8.17098422e-04
    -3.82250501e-03 -4.97122062e-03 -3.01937340e-03 -3.43046151e-03
    -1.34023337e-03 1.08009262e-03 2.07505445e-03 4.57231840e-03
    7.21972156e-03 -2.30319658e-03 -2.31488515e-03 -3.92196933e-03
    -2.37863860e-03 -2.50970828e-03 -1.07909751e-03 2.09834892e-03
    5.87906409e-03 3.10951914e-03 1.47064318e-04 -1.18278200e-03
    -3.97870922e-03 -1.16570946e-03 -4.75526002e-04 2.72412344e-05
    3.21802148e-03 4.88866179e-04 -5.21035399e-04 -3.05567239e-03
    -1.02961449e-05 -1.68371177e-03 -2.42699101e-03 8.96305835e-04
    3.88220348e-03 5.74901467e-03 5.08363778e-03 -2.54384498e-03
    3.25435447e-03 8.81435699e-04 7.01287820e-04 1.16967026e-03
    -2.31006206e-03 4.94812848e-04 3.83284991e-03 5.43212146e-03
    -6.26544992e-04 -1.18680985e-03 -1.87968195e-03 -6.11574214e-04
    -1.72875321e-03 1.22853403e-03 5.24484366e-03 6.82422891e-03
    3.97521537e-03 -3.70758382e-04 -3.93116241e-03 -1.45964883e-03
    1.42681063e-03 -1.00211531e-03 3.88579816e-03 3.02927452e-03
    2.64248089e-03 4.82459646e-03 -3.91245121e-03 9.36057360e-04
    -6.56175951e-04 2.14140368e-06 7.60500028e-04 5.68068260e-03
    7.11512938e-03 5.03319036e-03 2.82205967e-03 -2.51051993e-03
    -4.63845534e-03 1.32657110e-03 6.37964532e-03 3.31464433e-03
    -1.16419096e-05 2.32156995e-03 3.55195231e-03 2.74805306e-03
    -1.58108561e-03 -2.21298332e-03 9.07068490e-04 3.25558241e-03
    -6.42824685e-04 1.64602557e-03 7.12751993e-04 -1.87421596e-04
    3.98415048e-03 7.30160857e-04 8.78738065e-04 2.92965001e-03
    3.86350858e-03 3.11147003e-03 2.32741470e-03 1.51516940e-03
    -5.61014283e-04 1.47996773e-03 -4.30741441e-03 -7.18531257e-04
    3.63789778e-03 4.36323648e-03 2.76690978e-03 8.09200108e-03
    -7.15574890e-04 -2.89752893e-03 6.32044487e-03 1.60288403e-03
    4.93816426e-03 5.79705136e-03 4.87685530e-03 7.89160561e-03
    2.81288405e-03 -3.93246912e-04 -1.70613022e-03 2.18906719e-03
    -3.90452449e-03 -2.38175131e-03 1.39555696e-03 1.64239109e-03
    2.20776349e-03 2.54637236e-03 -1.33679976e-04 1.33662927e-03
    -4.98222478e-04 -4.97436058e-03 -2.83817644e-04 1.05239137e-03
    1.76015520e-03 1.95578253e-03 8.73648468e-03 1.93340727e-03
    -1.54791353e-03 5.27910842e-03 -1.88449293e-03 3.16764973e-03
    2.13577226e-03 -3.51825962e-04 5.04285144e-03 8.16840585e-03
    6.10630866e-03 4.32030903e-03 1.69003347e-03 -7.31471740e-03
    1.06691814e-03 2.20062514e-03 -5.85444177e-05 4.74363659e-03
    5.23907423e-04 2.02422333e-03 3.02175013e-03 -1.11106620e-03
    -1.80468871e-03 2.18190672e-03 3.83660407e-03 2.88376631e-03
    3.52828088e-03 -5.15863358e-04 3.21754342e-04 1.66932435e-03
    -4.14711703e-03 -1.83205050e-03 2.04905262e-03 4.48528398e-03
    3.34785087e-03 4.68237279e-03 7.00682728e-03 5.45599964e-03
    5.96691761e-03 -1.80298416e-03 -4.88319993e-03 2.74712592e-03
    6.69639558e-03 5.23039373e-03 7.41683738e-03 1.53148558e-03
    -1.58218390e-04 4.00802819e-03 -1.14355318e-03 -4.58630500e-03
    5.19800706e-05 1.21297140e-03 4.00031963e-03 5.04152477e-03
    1.24161504e-03 7.97984598e-04 3.20122344e-03 -2.67359870e-03
    -3.37252673e-03 1.91070710e-03 1.75240834e-03 3.20207467e-03
    4.70980629e-03 6.95718394e-04 4.61174583e-04 1.24081189e-03
    2.53902748e-03 -9.85765597e-04 -1.57297612e-03 -1.02076877e-03
    2.17734394e-03 2.62733875e-03 2.70349509e-03 -3.71272559e-04
    3.51800094e-03 -9.04475513e-04 -8.18328746e-03 -1.80610013e-03
    -2.11270666e-03 3.93017149e-03 5.03570121e-03 4.11864091e-03
    2.73872586e-03 3.86983366e-03 1.65987550e-03 -1.29294326e-03
    -4.29281266e-03 -1.49902678e-03 2.82951701e-03 3.01008625e-03
    -1.92459219e-03 7.18681957e-04 -8.45156843e-04 3.44271329e-03
    -1.36402887e-04 -3.13415378e-03 -1.37971865e-03 3.58736608e-04
    -2.10614075e-04 -4.20144107e-03 -3.62147111e-04 -7.66984886e-04
    8.27180408e-03 5.50813368e-03 -5.45769115e-04 3.17261787e-03
    2.07275082e-03 -1.16320606e-03 4.11614892e-04 1.04862404e-04
    7.81632145e-04 3.61598935e-03 -6.58335106e-04 -2.88225594e-03
    -1.78883062e-03 3.15741578e-04 5.10290265e-04 -3.48934205e-03
    -8.81392451e-04 -5.55922510e-04 3.08420742e-03 1.61941641e-03
    1.47133402e-03 2.44730781e-03 1.61597098e-04 -1.65287463e-03
    -2.46493216e-03 1.57461211e-03 2.13584956e-03 4.79451567e-03
    2.04575714e-03 -2.42866357e-04 3.69650219e-03 2.32397113e-03
    -2.40773312e-03 1.27367442e-03 4.92912484e-03 9.30758426e-04
    2.60130479e-03 2.73026247e-03 -6.71249791e-06 2.26904429e-03
    3.79557814e-03 2.11623847e-03 -3.00669507e-03 1.69243233e-03
    -4.46096325e-04 6.08041533e-04 -2.46072747e-03 6.70352951e-04
    8.96271202e-04 5.66609524e-05 -3.41306604e-03 3.05322418e-03
    5.17788669e-03 1.34422001e-03 3.12581449e-03 -1.31388218e-03
    1.45416916e-03 7.94811698e-04 3.41520016e-03 1.29877997e-04
    2.50755204e-03 4.72758943e-03 1.27361377e-03 9.79918521e-04
    -3.02038109e-03 -2.13361648e-03 2.69877957e-03 4.52591805e-03
    2.67387391e-03 2.96394760e-03 1.96171063e-03 2.39429809e-03
    1.70744467e-03 -2.28999578e-03 1.30690879e-03 2.26512901e-03
    2.85836845e-03 1.76951347e-03 3.46646411e-03 4.89035202e-03
    2.20693136e-03 1.68686348e-03 -2.87355203e-03 -1.90423056e-03
    -3.83398110e-05 2.17015995e-03 2.67790281e-03 2.25543580e-03
    2.34054844e-03 1.74197915e-03 -9.88830812e-04 7.45940852e-05
    1.08785008e-03 -7.26898492e-04 1.02286332e-03 2.09925091e-03
    1.65924721e-03 2.30914564e-03 1.94421306e-03 -1.26421847e-03
    -3.28596006e-03 9.43631749e-04 -4.46114270e-03 -8.59492575e-04
    2.06458056e-03 -7.85588578e-04 -2.61856173e-03 -3.53394053e-03
    -5.55203413e-04 -1.19045377e-03 6.55484619e-04 -5.06401062e-03
    -2.93627731e-03 -5.54984494e-04 -4.51623986e-04 1.97870098e-03
    4.01550950e-03 -3.02248052e-03 2.16768077e-03 -1.15110457e-03
    -6.38497248e-03 -1.61276292e-03 5.37394080e-04 -4.37584380e-03
    -1.55172893e-03 -3.35337780e-03 6.75969815e-04 4.35871480e-04
    1.85179466e-03 -4.74522961e-03 -3.35736433e-03 -1.90322963e-03
    1.57798734e-03 -1.34486321e-03 -8.70872755e-04 1.41259038e-03
    1.19281001e-03 -2.11442646e-04 -1.75823842e-03 5.08067838e-04
    3.87230073e-03 1.64340169e-03 7.48408085e-04 6.89024047e-04
    -8.48560303e-04 -2.92916177e-03 -4.54310933e-03 -6.43562933e-04
    1.76007906e-03 3.67732369e-03 3.32243828e-04 5.18799003e-04
    -1.21637876e-03 -5.15215914e-04 -5.79635566e-03 1.36470969e-03
    -1.05698884e-03 3.15945625e-04 3.58416536e-03 -1.66220171e-03
    1.55529380e-03 6.66591572e-04 -1.16629573e-03 -3.18739354e-03
    -1.16716034e-03 5.06468990e-04 3.95714073e-03 3.04487068e-03
    2.21235398e-03 -7.15559232e-04 -1.34579150e-03 -4.96303139e-04
    4.24301019e-03 -1.15551963e-03 -1.96470100e-05 1.98112630e-05
    1.68826221e-03 4.09543485e-04 -4.10355628e-03 -3.87435290e-03
    3.19748372e-03 7.66760483e-03 2.79125455e-03 -1.70077733e-03
    -6.38666446e-04 2.02658004e-03 -1.19117496e-03 3.67662025e-04
    -8.32248130e-04 -9.62431543e-04 5.47820702e-03 -1.79973408e-03
    2.62638298e-03 1.95283233e-03 6.60056656e-04 -8.87828821e-04
    -2.32429884e-04 -2.70388857e-03 1.96938403e-03 6.22293819e-03
    2.12935003e-04 1.63258298e-03 7.60551426e-04 5.59669803e-04
    -3.14071472e-03 -4.55827499e-03 -3.29140667e-03 3.36076086e-03
    1.17018516e-03 1.78406353e-03 -1.82234938e-03 -1.70979404e-03
    -1.02607557e-03 -7.61514821e-04 9.61183687e-04 3.84754012e-03
    6.44624559e-03 6.05605030e-03 6.14954904e-03 2.43321803e-04
    -1.48967549e-03 -2.53796647e-03 -2.54780590e-03 -1.70089561e-03
    -4.58991010e-04 5.35929343e-03 2.24938500e-03 7.27682273e-05
    -1.41664117e-03 -1.15833839e-03 -7.59365910e-04 9.09094408e-04
    1.39271154e-03 5.25151752e-03 9.01863817e-03 7.51808472e-03
    6.13413937e-03 1.69258646e-03 2.95935292e-03 1.43564690e-03
    -2.38984590e-03 1.58192229e-03 1.77415321e-03 1.73068501e-03
    5.87869762e-03 5.09455102e-03 2.50574725e-04 -1.31260499e-03
    -2.93961121e-03 -3.55219375e-03 -1.52006149e-04 -6.78136945e-04
    -2.22374755e-03 4.60179895e-03 -2.34933035e-03 1.00358424e-03
    1.23250811e-05 -4.92310431e-03 -1.48324564e-03 -1.40531850e-03
    5.68532778e-05 3.07676243e-03 3.47125670e-03 5.66691114e-03
    2.73916777e-03 -7.28111889e-04 -2.13139947e-03 4.48719984e-05
    1.26457110e-03 1.42692216e-03 -1.81835308e-03 3.07928212e-03
    1.24396733e-03 4.69406554e-03 2.29727640e-03 -3.82793572e-04
    -3.45423864e-03 1.39479831e-04 1.04929379e-03 -3.91184678e-03
    -6.81981095e-04 -2.18428392e-03 -1.64669263e-03 3.33997799e-04
    -4.16142261e-03 -1.39873824e-03 1.71995687e-03 3.06357536e-03
    3.72433593e-03 7.03815371e-03 3.29478481e-03 -4.04975470e-03
    -2.78383563e-03 -2.89449561e-03 -2.33907806e-04 1.54859363e-03
    3.88737069e-03 -1.70713186e-03 -1.69188227e-03 -8.03024974e-04
    -5.98738843e-05 4.10702545e-03 1.56770332e-03 5.88183466e-04
    2.76035001e-03 6.07419247e-03 6.87672989e-03 6.42552972e-03
    4.28700307e-03 -3.14860838e-03 1.71969901e-03 1.74929167e-03
    -2.11070501e-03 -1.12093112e-03 6.95948140e-04 5.80897322e-03
    3.83279799e-03 2.08512880e-03 -4.43636905e-03 -3.72971362e-03
    -3.09081655e-03 -6.29863329e-03 -2.11023493e-03 2.66814721e-03
    9.62378923e-03 4.23494354e-03 8.97050952e-04 -4.50627971e-03
    -3.17261065e-03 -3.94961331e-03 -1.95447449e-03 -9.42703104e-04
    2.38995068e-03 8.63497611e-03 6.03666296e-03 -1.00033463e-03
    -6.31556986e-03 -4.08814615e-03 -9.24063206e-04 -4.29129833e-03
    -1.25145772e-03 1.50944840e-03 6.84833666e-03 2.34583233e-04
    -6.09073089e-04 -2.55234656e-03 -7.13756250e-04 -1.48915837e-03
    4.66664496e-04 4.32809029e-05 2.69101886e-03 3.92703898e-03
    1.50268013e-02 -1.63499836e-03 -2.76279938e-03 -6.44870161e-04
    9.99626820e-04 1.03957299e-03 6.94014525e-05 5.95328049e-04
    -3.60141927e-03 -1.37420269e-04 -6.59694662e-03 -5.56699885e-03
    -2.75310967e-03 -2.64801248e-03 3.59883020e-03 2.37329584e-03
    3.13627301e-04 -4.89214028e-04 4.79879323e-03 -2.46782991e-04
    -5.91678952e-04 5.80585143e-03 3.79762147e-03 6.54971646e-03
    5.44727407e-03 3.60635505e-03 -3.36892111e-03 -5.71577623e-03
    -5.88596519e-03 -1.51769910e-03 2.77194125e-03 5.35312342e-03
    -7.60336552e-05 3.78927393e-06 2.44297390e-03 -4.15364420e-03
    -4.53051087e-03 -4.42156196e-03 -2.21967790e-03 -2.87458673e-03
    -1.20662898e-03 1.63723074e-03 3.18871927e-03 3.94500373e-03
    3.03107168e-04 -8.64733942e-04 -7.29041873e-04 -2.85259378e-03
    -1.48339034e-03 8.38935783e-04 3.64304148e-03 5.43870358e-03
    5.56856673e-03 -1.64210959e-03 -3.87295312e-03 -3.51929129e-03
    -1.28725718e-03 -9.09035371e-05 2.07272591e-03 4.76199063e-03
    8.13624915e-03 9.53830313e-03 1.09303812e-03 5.04316064e-04
    -2.96275946e-04 -5.60233311e-04 9.40415135e-04 4.74570878e-03
    4.55142790e-03 2.25595268e-03 1.89156167e-03 1.23647519e-03
    -2.76573189e-03 -2.05932278e-03 -2.61928164e-03 -2.07954654e-04
    2.32517673e-03 4.41412209e-03 3.73938703e-03 2.77254521e-03
    -1.33012084e-03 -4.23359638e-03 -7.41070043e-03 1.30934420e-03
    2.10235082e-03 2.65450845e-03 5.16598346e-03 7.36910757e-03
    5.23721613e-03 -9.38779267e-05 -1.62788061e-03 -7.99575355e-04
    -1.56530552e-03 -3.95229799e-05 3.87298875e-03 8.89995415e-03
    9.82966553e-03 9.63822100e-03 1.89444656e-03 3.29344068e-04
    -4.24683187e-03 3.79224564e-03 1.55438564e-03 6.24259515e-03
    -5.96369791e-04 -2.22850451e-03 -1.46406272e-03 -6.32649113e-04
    -6.07558992e-03 -2.17615440e-03 2.40455102e-03 3.01237986e-03
    3.23263412e-05 4.54550143e-03 -1.89801876e-03 -2.53326329e-03
    4.40194877e-03 -5.78069710e-04 2.06936058e-03 3.34704947e-03
    2.66143796e-03 1.70811207e-03 5.56467706e-03 6.41499972e-03
    4.34517767e-03 3.21206287e-03 -6.93795551e-03 -3.71577125e-03
    1.60099426e-03 1.97971682e-03 3.02461279e-03 1.11996857e-02
    6.20446587e-03 6.93126861e-03 1.07811550e-02 2.12913705e-03
    -7.92580067e-06 2.20413785e-03 4.74449620e-03 5.38457884e-03
    4.65712463e-03 7.69580889e-04 3.68234818e-04 9.07439971e-04
    -3.96747468e-03 -2.33188635e-04 2.17855768e-03 -5.78988169e-04
    1.39617594e-03 5.77167235e-03 3.03561450e-03 7.33787252e-04
    -3.00051877e-03 -5.43618668e-03 1.79342984e-03 2.69339397e-03
    8.46402836e-04 4.11788095e-03 5.24276216e-03 4.21941280e-03
    5.77231916e-03 3.46714118e-03 -2.06484785e-03 -1.15816004e-03
    2.86008697e-03 3.39022884e-03 3.89833236e-03 3.68907000e-03
    2.77187396e-03 2.88534397e-03 -1.19524950e-03 -5.10016922e-03
    2.00772937e-03 6.66303188e-03 5.17782522e-03 7.34531367e-03
    6.75569242e-03 3.06876516e-03 2.71913549e-03 -4.59596142e-03
    -7.05605000e-03 -5.84458001e-04 4.89677815e-03 3.22812609e-03
    4.91286116e-03 2.61717220e-03 6.22057560e-05 3.74161056e-03
    -2.30903432e-04 -5.99841401e-03 -3.14540137e-03 -1.55945309e-03
    1.66977907e-03 1.80726463e-03 7.16393348e-03 2.72781076e-03
    3.62816174e-03 6.61799917e-04 1.68094633e-03 5.33293094e-03
    1.05300881e-02 6.54866314e-03 7.95923360e-03 6.30335836e-03
    2.62197689e-03 1.68658723e-03 6.95996569e-05 -2.30691233e-03
    2.64184689e-03 1.82092725e-03 4.32863180e-03 5.97930420e-03
    4.93798265e-03 1.34105666e-03 3.93805234e-03 1.82024029e-03
    -4.30494919e-03 -4.04087128e-03 -2.49797781e-03 2.07895879e-03
    3.89096537e-03 5.17210364e-03 2.96388916e-03 2.95996154e-03
    6.36633020e-04 -3.22379614e-03 -5.89884957e-03 -1.36578665e-03
    1.19122758e-03 2.67679733e-03 9.31425579e-03 6.23062905e-03
    3.64515232e-03 1.59188500e-03 -7.07541266e-03 2.73053767e-04
    -1.20456552e-03 3.19907209e-03 8.37127492e-03 7.64959073e-03
    5.09409187e-03 3.02048458e-04 2.09684600e-03 -2.96208286e-03
    -3.80134024e-03 6.47230889e-04 1.62455416e-03 6.04747050e-03
    3.17719392e-03 1.55676249e-03 2.97704805e-03 3.29602184e-03
    -6.70959183e-04 -3.70624335e-03 1.19924499e-03 1.07522146e-03
    1.70928752e-03 3.73542192e-03 1.78186293e-03 1.30907318e-03
    1.84545259e-03 1.01541833e-03 6.10634161e-05 2.06235563e-03
    8.78736842e-04 3.42374714e-03 4.54995828e-03 1.08525821e-03
    2.15213560e-03 3.54888057e-03 -1.60063035e-03 -3.29618901e-03
    8.72501347e-04 7.11348432e-04 3.19212046e-03 1.26807508e-03
    1.74775964e-03 4.74860892e-03 3.09318700e-03 -1.44286038e-04
    -2.86797248e-03 2.36507505e-04 3.22592299e-04 7.37242284e-04
    3.08041833e-03 1.92488462e-03 -8.11737322e-04 7.84731819e-04
    2.03148788e-03 1.87501183e-03 3.23756423e-04 9.71846399e-04
    2.61793216e-03 5.18626301e-03 2.70859315e-03 3.04289092e-03
    1.74114201e-03 2.54811347e-03 5.68746822e-04 2.47773569e-04
    3.52789159e-03 3.85728874e-03 5.58941800e-04 6.52197283e-04
    -2.95317295e-04 -8.25769093e-04 -2.48811278e-03 -1.04082259e-03
    -2.16997392e-03 6.22912266e-05 2.16005533e-03 4.51342063e-03
    1.19518803e-03 2.59674620e-03 -2.02483032e-03 -3.86361359e-03
    -2.44726613e-03 -3.62581544e-04 2.78413226e-03 6.04529586e-03
    4.13220702e-03 4.32205014e-03 3.65834241e-03 -4.55485017e-04
    -1.54189765e-03 -2.03112932e-03 -2.18689884e-03 -5.92003809e-04
    2.94822454e-03 2.73516797e-03 2.54942942e-03 9.37286066e-04
    -9.76421987e-04 1.07764010e-03 3.30581272e-04 -9.18060134e-04
    1.09662092e-03 2.33509182e-03 4.29866323e-03 2.14164983e-03
    3.45400139e-03 -1.21940428e-03 -6.15936005e-03 -5.00673661e-03
    -1.72100321e-03 -8.47504009e-04 3.94380838e-03 3.60744330e-03
    1.34333526e-03 3.80402687e-03 -1.94210646e-04 -3.97597393e-03
    -1.27736444e-03 9.09697090e-04 4.43022640e-04 2.96131615e-03
    -1.04410283e-03 3.51187377e-03 1.40521908e-03 -2.94251763e-03
    5.21515263e-03 -1.13610108e-03 -2.77184229e-03 3.96233896e-04
    -3.79607402e-04 -4.28057229e-03 1.68242201e-03 -2.84025678e-03
    -1.34887127e-03 6.73184451e-03 1.66220672e-03 -2.44533154e-03
    -8.27867887e-04 -3.72596458e-03 -2.34045135e-03 -1.16045776e-04
    -3.16982786e-03 -2.77638645e-03 5.26033575e-03 -1.27391401e-03
    6.93231588e-04 1.95312465e-03 -2.04956322e-03 -7.85197131e-03
    -1.51396543e-03 -3.80574842e-03 -6.60670688e-04 7.23950937e-03
    -1.17299857e-03 -3.91934672e-03 -9.32380557e-04 -6.16685394e-03
    1.09784759e-03 1.81041239e-03 2.30594509e-04 -1.65117113e-03
    -1.81957532e-03 1.84996426e-03 -2.60837818e-03 8.67031704e-05
    2.21738033e-03 -2.01588799e-03 2.22622897e-04 1.24964397e-03
    -1.60762726e-03 -1.04680308e-03 6.03312219e-04 -1.02648640e-03
    1.15059060e-03 1.45853288e-03 -5.48545830e-03 4.07623273e-04
    -2.82478781e-04 -2.91359582e-04 2.09580362e-03 -5.35551517e-04
    -4.88904258e-03 -1.47756492e-03 -4.57258755e-03 -9.09613853e-04
    -1.11712597e-03 -2.30578706e-03 -8.92643409e-04 1.72817695e-03
    -2.25423137e-04 -3.20074568e-03 -8.27128883e-04 -2.79522524e-03
    -2.31115147e-03 -2.13780487e-03 -1.13660283e-03 -6.70818146e-04
    1.45702029e-03 -1.98760990e-05 -6.83562714e-04 6.21247746e-05
    2.44476600e-04 -2.74001481e-03 -1.05099438e-03 5.94484969e-04
    1.26514910e-03 9.05123167e-03 -3.74162773e-04 -2.30837337e-04
    -2.94343219e-04 -1.01296371e-03 1.69385376e-03 -3.90253321e-04
    -5.47156611e-04 9.82305850e-04 3.94838804e-04 1.48890584e-04
    -2.25536432e-03 -1.43044512e-03 9.90323955e-04 -5.79265412e-04
    1.75414304e-03 3.37896263e-03 2.20269919e-03 4.56960965e-03
    5.06793731e-04 -1.32021855e-03 1.78515608e-03 -9.03968466e-04
    -5.68994367e-03 -1.89555879e-03 2.16928936e-04 1.09738880e-03
    5.74879488e-03 3.35666118e-04 -7.90566846e-04 -1.23859348e-03
    -3.69485887e-03 -3.40173719e-03 -1.30649516e-03 2.11563474e-03
    3.70525848e-03 9.68499202e-03 6.15056092e-03 -6.67220622e-04
    8.43636401e-04 -1.31051359e-03 -2.70831655e-03 1.89538975e-03
    7.99724017e-04 -1.57298776e-03 1.00451596e-02 5.81410830e-04
    -1.30100490e-03 8.58147279e-04 -3.03056464e-03 -2.34669121e-03
    1.57779537e-03 -2.65427720e-04 -1.17530100e-04 1.52704399e-02
    4.88316920e-03 8.85768153e-04 1.95209158e-03 -2.22149841e-03
    -2.26849969e-03 -3.67806223e-03 4.18187235e-04 1.54632982e-03
    8.74038134e-03 3.84577969e-03 -1.65428466e-03 -2.25967704e-03
    -3.26054357e-03 -9.87407169e-04 -1.20667671e-03 1.24312064e-03
    -1.27751310e-03 5.14268735e-03 3.79532296e-03 3.98475258e-03
    -1.81044533e-03 -2.36650417e-03 -6.98423944e-04 -1.15868822e-03
    -8.79610714e-04 -6.24259468e-04 8.05817731e-03 1.60337728e-03
    -2.65717879e-03 -2.73942342e-03 -3.14686424e-03 -9.45999345e-04
    -1.29221287e-03 7.22557481e-04 -2.61839409e-03 -2.00986653e-03
    6.11547753e-03 5.08861290e-03 -1.13921973e-03 -2.32787221e-03
    -1.59599853e-03 -1.06589054e-04 2.02283286e-03 -2.90938211e-03
    -3.88845126e-03 -1.37317611e-03 4.41530894e-04 1.26017525e-03
    -3.19845800e-04 -3.22916126e-03 8.94193538e-04 2.07878184e-03
    4.43573250e-03 6.37885137e-03 1.02068461e-03 -2.54895049e-03
    7.22261728e-04 -2.24719732e-03 -5.25270402e-03 -1.05992483e-03
    3.96999018e-03 -2.33583734e-03 -2.60546827e-03 1.69563305e-03
    4.60735010e-03 -2.28435834e-04 -3.63738812e-03 -3.04128183e-03
    4.86859260e-03 6.41609775e-03 3.54054058e-03 7.49455532e-03
    4.08977643e-03 2.29812320e-03 8.25886033e-04 -2.40263133e-03
    -1.71301572e-03 8.87006056e-04 3.04804370e-03 7.77528621e-03
    9.76796541e-03 -1.00700220e-03 -1.88463344e-03 -9.34159383e-04
    -1.68451690e-03 -6.88428816e-04 6.86941901e-04 5.08024474e-04
    4.49335016e-03 -1.02219742e-03 -2.85647577e-03 -7.94008665e-04
    4.87910329e-05 -1.31687243e-03 -1.97146484e-03 2.64521246e-03
    3.79615068e-03 3.79261025e-03 7.82136247e-03 1.47674442e-03
    2.02832371e-03 1.23683107e-03 -2.76215887e-03 -6.83807521e-05
    2.60419707e-04 -1.73323322e-04 -2.59205094e-03 -4.55645332e-03
    -1.22270733e-03 1.35183963e-03 7.91510160e-04 -2.13883701e-03
    4.65467665e-03 3.70910740e-03 6.17844518e-04 -1.03723793e-03
    1.79644048e-04 -7.43214187e-05 1.65721297e-03 4.87124082e-03
    4.03137086e-03 5.09162713e-03 7.31498748e-03 3.08637694e-03
    -5.68412710e-03 -8.58127698e-03 -6.13802997e-03 5.11520775e-04
    3.36435228e-03 3.91786359e-03 1.69619301e-03 3.69653478e-03
    4.17466415e-03 -1.23423850e-03 -3.31707345e-03 -2.11781095e-04
    -3.85841849e-05 1.68882275e-03 9.42998799e-04 2.31124810e-04
    5.62581047e-03 3.10515729e-03 -3.78567842e-03 -5.85593563e-03
    -4.85575467e-04 2.16946681e-03 5.98461321e-03 3.44442742e-06
    3.73606291e-03 5.40259713e-03 4.41541662e-03 -2.98420363e-03
    -4.50802082e-03 -5.58296498e-03 -1.04477222e-03 7.49400817e-04
    2.56499182e-03 5.93141094e-03 9.24636610e-03 4.23967279e-03
    -3.01658385e-03 1.40198867e-03 -2.23198067e-03 -2.43576476e-03
    7.25890044e-04 4.12577251e-03 -6.58913224e-04 3.19285691e-03
    7.86320088e-05 -6.36248989e-03 -3.43584339e-03 -2.71933223e-03
    -1.62542879e-03 1.54134608e-03 -1.34538370e-03 9.42983758e-03
    8.18691775e-03 3.28390999e-03 -1.30014215e-03 8.61819740e-03
    2.36264290e-03 -2.12963045e-04 7.79874448e-04 5.98876085e-03
    5.10983029e-03 6.75010588e-03 5.98099490e-04 -4.43164911e-03
    -4.28311527e-04 -1.98271731e-03 -5.80810651e-04 5.88324096e-04
    3.35872383e-03 8.19208194e-03 9.79460962e-03 3.82790738e-03
    -3.85533087e-03 -6.50600437e-03 -8.17324594e-03 1.17892306e-03
    1.60779062e-04 5.30746253e-03 6.37112046e-03 5.78195602e-03
    1.16021920e-03 -3.14043858e-03 1.86256086e-03 4.85888071e-04
    -6.79324294e-05 4.38464223e-04 3.52561357e-03 1.07766259e-02
    1.02322279e-02 4.30477737e-03 -1.47433137e-04 -1.60581269e-03
    -4.28605080e-03 3.37916217e-03 1.81642652e-03 7.28114415e-03
    5.12941228e-03 7.61389453e-03 2.53918371e-03 -1.23500521e-03
    -9.22036264e-03 -6.01587212e-03 1.64612589e-04 5.85553760e-04
    3.17664444e-03 3.87789123e-03 6.96737645e-03 6.25668280e-03
    4.82209865e-03 -6.28780341e-03 -3.04838340e-03 -9.68354580e-05
    2.34566885e-03 1.62274274e-03 3.02807079e-03 7.97804352e-03
    4.07209340e-03 2.43310467e-04 -6.41322229e-03 -3.08651314e-03
    7.40800169e-04 1.56583454e-04 2.45378725e-03 6.83019077e-03
    1.04630599e-02 9.41028167e-03 8.43112729e-03 -2.06494646e-04
    9.78107098e-04 4.13882604e-04 1.54066307e-03 3.74941202e-03
    2.05049478e-03 6.24590181e-03 4.31241980e-03 2.01986916e-03
    -3.59829469e-03 -6.05810317e-04 1.61432533e-03 2.43873755e-03
    -4.14275855e-04 7.46878737e-04 4.46987152e-03 3.94650875e-03
    5.46227893e-05 -5.05580660e-03 4.91860928e-03 4.66343900e-03
    1.98082440e-03 1.83044805e-03 5.65326540e-03 8.47658142e-03
    8.31081998e-03 4.84982319e-03 -1.75474532e-04 3.34648206e-03
    1.64137047e-03 1.43745914e-03 1.98847638e-03 3.68968584e-03
    5.29403379e-03 3.26124113e-03 -1.36712799e-03 -4.02924139e-03
    6.79641450e-03 3.35702626e-03 1.41116220e-03 3.81642458e-04
    2.82785483e-03 2.01864075e-03 2.26647244e-03 -1.52748289e-05
    -2.00429885e-03 6.10707467e-03 6.26536645e-03 2.87784287e-03
    2.83536967e-03 4.68702661e-03 3.24823987e-03 -1.35037117e-03
    -4.32605203e-03 -7.99108576e-03 1.89953251e-03 2.68110307e-03
    4.38175537e-03 4.69890004e-03 2.66484474e-03 3.43535701e-03
    1.08622864e-03 -2.43198429e-03 -8.72094824e-04 6.82004634e-03
    5.38405124e-03 2.73114117e-03 1.21150981e-03 6.13569422e-03
    4.55832807e-03 1.94047135e-03 -2.60297488e-03 -6.91311713e-03
    5.51730511e-04 5.33545250e-03 4.42365138e-03 6.56817248e-03
    4.43565100e-03 5.32685127e-03 1.10584660e-03 -8.01321294e-04
    -1.03078661e-02 -7.70356215e-04 5.68203453e-04 2.32866569e-03
    4.10319632e-03 3.14482488e-03 4.18793689e-03 2.00552400e-03
    1.28424144e-03 -4.64565819e-03 1.61614778e-04 -1.03380159e-03
    3.69845016e-04 2.71235663e-03 8.92997161e-03 7.52557954e-03
    4.49067587e-03 2.74190609e-03 -6.31931331e-03 -8.09058256e-04
    4.40536579e-03 3.66331288e-03 7.81675056e-03 7.12704239e-03
    6.12719264e-03 4.19104146e-03 2.15635612e-03 -3.14956973e-03
    -1.62983127e-03 4.34188114e-04 1.05880678e-03 4.43729432e-03
    2.63812952e-03 1.42444321e-03 1.97474402e-03 2.65070959e-03
    -5.09182049e-04 1.62913965e-03 7.60566792e-04 1.33868703e-03
    3.25180870e-03 -2.18839315e-03 -4.42271121e-04 1.90367980e-03
    4.87241014e-05 -1.62622437e-03 -2.15735147e-03 -1.48929993e-03
    -7.42498320e-04 -3.28311900e-04 3.14671174e-03 2.00110907e-03
    4.00880398e-03 6.82247861e-04 7.31780939e-03 3.71992332e-03
    1.07964769e-03 3.06761102e-03 5.21642948e-03 -7.73013817e-05
    -9.86889354e-04 1.38235686e-03 -1.05483318e-03 1.52413640e-03
    2.81044375e-03 -2.38637463e-03 -4.21136530e-04 1.04088034e-03
    -7.17760588e-04 1.23033242e-03 2.24133581e-03 -4.53803077e-04
    -4.30377986e-04 -1.11259660e-03 -1.40710291e-03 -1.18828619e-04
    1.60970644e-03 1.98784517e-03 1.59332331e-03 2.55048857e-03
    -1.37384003e-03 -1.06636260e-03 -2.82508321e-03 1.32092251e-03
    1.30664627e-03 4.79658926e-03 4.55237925e-03 8.79649422e-04
    2.23459839e-03 1.24410470e-03 3.07833799e-03 -7.03190337e-04
    -3.74946045e-03 -2.69441702e-03 3.23207653e-03 1.67226209e-03
    2.17878871e-04 -1.60358730e-04 -1.36942568e-03 5.58313634e-03
    -3.47021455e-03 -3.24147125e-03 -2.75346986e-03 1.11019798e-03
    3.57755320e-03 -2.59593944e-04 2.51797773e-03 -1.79719401e-03
    -2.55974568e-03 -9.54929274e-04 1.25996943e-03 1.25969027e-03
    5.54243242e-03 2.83454289e-03 -1.52879825e-03 3.29690473e-03
    -2.99094431e-03 -2.90125026e-03 -2.24045783e-04 1.82924990e-03
    1.13332178e-03 4.43038903e-03 2.16780696e-04 -7.07669067e-04
    1.30463205e-03 -1.55880186e-03 1.12481834e-03 -2.87060533e-03
    -3.33359325e-03 -2.76040426e-03 -7.25213846e-04 3.11688241e-03
    -2.65764138e-05 1.31732307e-03 -1.33479340e-03 -5.80443721e-03
    -1.43297727e-03 5.45744610e-04 1.30937842e-03 1.91878434e-03
    -5.81365079e-04 6.14518824e-04 7.80654605e-04 -5.85546019e-04
    2.09115585e-03 -7.14750146e-04 9.88336978e-04 1.57802645e-03
    -1.49927964e-03 -5.84298698e-03 -1.79402751e-03 -6.32443931e-04
    2.58820923e-03 2.62627774e-03 -8.83036177e-04 -4.01534000e-03
    -2.07419810e-03 -5.63178770e-03 2.24127644e-03 4.15793527e-03
    5.63588785e-03 1.94526848e-03 -1.91466301e-03 7.59455143e-04
    1.47486245e-03 2.52453727e-03 3.57423304e-03 -1.42565335e-03
    4.19104326e-04 3.39669385e-03 8.27410258e-03 5.67182899e-03
    -1.87540613e-03 -4.40358836e-03 -1.93161087e-03 -3.60209006e-03
    -3.68878385e-03 4.06853011e-04 4.79716808e-04 2.81746895e-03
    -1.07074331e-03 -9.49193549e-04 -3.27604357e-03 2.28836303e-04
    -3.87035776e-03 -5.87576884e-04 -6.08453876e-04 -3.42062581e-03
    1.85791811e-03 -2.10595783e-03 1.00902485e-04 -1.85866549e-03
    7.40528689e-04 -8.35761835e-04 4.75517660e-03 8.64869449e-04
    3.99838755e-04 3.76897864e-03 3.05593410e-03 -2.47388449e-03
    -4.53826692e-03 1.76364731e-03 3.25230905e-03 2.62511172e-03
    7.69866921e-04 -2.95285974e-03 1.22131489e-03 -9.63597652e-03
    4.11800283e-05 -2.29693833e-03 4.36647329e-03 4.09140019e-03
    6.84778846e-04 1.08875298e-04 -1.70830660e-03 1.07522996e-03
    -1.89118111e-03 1.38129923e-03 -6.10011979e-04 -2.80984852e-04
    3.49415292e-04 2.44130776e-03 2.17663287e-03 2.14811461e-03
    2.50008510e-04 -2.53423641e-04 8.80028383e-05 -1.78539740e-05
    2.21235538e-03 1.94710493e-03 -6.48089190e-05 4.72991786e-04
    -1.03510288e-03 6.84684375e-04 -4.81278310e-03 1.53986295e-03
    1.28571643e-04 3.10829352e-03 1.80642435e-03 1.27287884e-03
    1.46190543e-03 -3.58761521e-04 -3.33426427e-03 -3.89815029e-03
    -3.86386615e-04 5.19521488e-03 6.84374897e-03 3.39469244e-03
    1.43248180e-03 2.72855209e-03 -5.31201949e-04 -2.24828860e-03
    5.59753925e-03 6.82789716e-04 -6.11110909e-06 1.30644755e-03
    1.28977653e-03 1.37792702e-03 3.01102013e-03 -4.04617935e-03
    -2.43227440e-03 1.21605871e-02 5.36502013e-03 1.70802546e-03
    1.88543298e-03 1.78441324e-03 1.58870162e-03 2.95890006e-03
    -3.90691188e-04 -2.63583031e-03 -2.41837068e-03 3.53774027e-04
    1.85812672e-03 3.08099878e-03 1.87672861e-03 -2.27393582e-03
    3.10917362e-03 -1.46607403e-03 -2.15711119e-03 4.53082426e-03
    3.24532343e-03 7.87088647e-04 4.89054190e-04 2.44273950e-04
    -1.49474340e-03 5.19618043e-04 -3.58802523e-03 -4.48101759e-03
    3.64534184e-03 2.39474303e-03 -1.59609842e-03 -2.00040033e-03
    -2.37811985e-03 -3.23482649e-03 -8.32649879e-04 -2.26748898e-03
    -4.19651903e-03 1.64586829e-03 8.78614932e-03 3.69298691e-03
    -3.79405647e-05 -2.82848533e-03 -5.88690396e-03 9.27179353e-04
    -1.82302785e-03 -7.96887849e-04 1.91934186e-03 4.84838895e-03
    8.09142424e-04 -1.83256099e-03 -3.21064983e-03 -4.85274009e-03
    1.95548590e-03 1.12885272e-03 8.30590900e-04 8.91092978e-03
    1.23215029e-02 2.68499437e-03 7.04920269e-04 -4.42129979e-03
    -5.92142669e-03 -2.40262318e-03 5.47354459e-04 -2.28259526e-03
    2.01383606e-03 5.82100730e-03 4.52416763e-03 -5.23089606e-04
    -4.96620452e-03 -1.23974867e-03 2.40902812e-03 4.13730275e-03
    3.73322703e-03 6.92996522e-03 -1.78181019e-03 1.44962338e-03
    -3.09536816e-04 -1.39574474e-03 -3.22326040e-03 -6.48801288e-05
    -6.19889761e-04 -2.92499806e-03 5.21986280e-03 7.19917379e-03
    2.64966371e-03 7.81358685e-04 -3.87696037e-03 2.51400610e-03
    4.48547257e-03 -1.58859475e-04 2.29815370e-03 7.41960574e-03
    -2.50895537e-04 1.49562885e-03 -2.63519207e-04 -1.36653380e-03
    -6.80282537e-04 1.94306939e-03 2.58186366e-03 4.13615117e-03
    7.07603479e-03 5.75109909e-04 2.99949269e-03 1.50749972e-03
    -1.50934875e-03 -1.15746690e-03 9.93500813e-04 1.53337687e-03
    -9.38398647e-04 -5.00222482e-03 1.62808492e-03 1.79027929e-03
    -3.86241154e-04 -2.60779355e-03 -1.17555400e-03 1.43778976e-03
    1.16684311e-03 3.79058649e-03 9.18174721e-03 2.53616110e-03
    3.90464463e-03 5.40666166e-04 -2.89930589e-03 -4.46541701e-03
    -1.30352343e-03 1.99229643e-03 1.17882772e-03 -3.57078947e-03
    6.04632543e-03 1.97464414e-03 5.12473518e-04 -2.05962290e-03
    1.87786471e-03 2.27652839e-03 4.50037839e-03 1.42475928e-03
    -7.10832479e-04 2.80386908e-03 1.48034701e-03 2.04365002e-03
    1.34064408e-03 6.32632873e-04 1.85909646e-03 5.26366202e-05
    -6.42007217e-03 -3.86841549e-03 -6.23397878e-04 1.22326391e-03
    4.60385391e-03 9.68544278e-04 1.83194666e-03 8.84722918e-04
    5.48635563e-03 2.12864904e-03 2.43575871e-03 5.39293000e-03
    2.98325508e-03 2.13466235e-03 2.83291214e-03 4.03111055e-03
    3.92458914e-03 1.98291917e-03 -6.66861376e-03 1.30936864e-03
    -2.39017699e-03 2.20872648e-03 2.41581816e-03 1.27145427e-03
    4.26594313e-04 2.11700075e-03 -7.59792107e-04 -4.53004660e-03
    -2.53716623e-03 -2.37959716e-03 -2.73819291e-03 1.52234465e-03
    6.88942615e-04 5.75101469e-03 7.09745754e-03 4.52492619e-03
    1.94515986e-03 4.78126062e-03 5.27401781e-03 -1.88640074e-03
    -3.14841134e-04 2.40187300e-03 4.02065041e-03 4.76748869e-03
    3.53638199e-03 -1.54839258e-03 -1.98707310e-03 -4.68067033e-03
    -3.02686286e-03 -1.37092732e-03 4.04012280e-05 7.29841879e-03
    1.07286731e-02 8.94616544e-03 4.43490548e-03 6.89388253e-03
    3.14854947e-03 -2.08076136e-03 -2.65122071e-04 3.03002249e-04
    1.11799373e-03 2.61800201e-03 1.44164253e-03 -1.53175104e-04
    -3.45613458e-03 3.51391151e-03 -2.69116927e-03 -2.21448648e-03
    -1.56504766e-03 2.22614920e-03 3.70751554e-03 6.22394262e-03
    3.20184580e-03 -9.55043081e-03 -1.67144311e-03 3.67238506e-04
    -1.13374248e-04 9.11874871e-04 -1.93472093e-04 7.31744943e-03
    6.71703741e-03 -3.04560468e-04 -5.59758767e-03 -9.77088130e-05
    -3.08891688e-03 -1.55840814e-03 -3.26010562e-03 5.78466291e-03
    8.62604566e-03 1.44174909e-02 1.11559657e-02 -4.01071832e-03
    3.54921585e-03 2.05730461e-03 5.26009919e-03 4.56916075e-03
    2.87932041e-03 4.09514923e-03 3.91381420e-03 1.31236808e-03
    -7.04320148e-03 -1.42260548e-03 1.34042103e-03 1.31636218e-03
    1.80926162e-03 3.92470788e-03 5.46890916e-03 5.70968166e-03
    3.21322167e-03 -4.61645517e-03 -2.24676332e-03 6.94672402e-04
    1.70802500e-03 1.91148254e-03 5.91859175e-03 8.85189883e-03
    7.16423383e-03 7.71125313e-03 -6.55657565e-03 2.34620180e-03
    3.67908017e-03 3.84529727e-03 5.00636688e-03 3.35564022e-03
    4.43229824e-03 4.82130237e-03 5.90197882e-03 -6.30457094e-03
    -2.12194878e-04 3.46044172e-03 3.33779911e-03 1.73119464e-04
    5.36833145e-03 5.62902773e-03 5.76599827e-03 6.32676529e-03
    7.29013584e-04 3.87148350e-03 4.34397766e-03 2.86067976e-03
    1.84768753e-03 3.19677172e-03 4.11688024e-03 3.29956692e-03
    -1.98430120e-04 -6.92572678e-03 2.15186668e-03 3.08552478e-03
    2.72092363e-03 -1.80287822e-03 3.79213877e-03 4.83090244e-03
    6.64474908e-03 6.67303428e-03 -4.04916675e-04 1.96179375e-03
    3.84152401e-03 2.75673647e-03 -1.02686265e-03 4.04807134e-03
    5.45806438e-03 4.75573679e-03 1.50743770e-04 -1.10356137e-02
    -1.86579546e-03 3.03389505e-03 4.06385027e-03 -7.11286921e-05
    3.08044488e-03 4.52600978e-03 2.44907150e-03 -1.49598008e-03
    -3.56859202e-03 8.89439776e-04 3.19927488e-03 1.84112194e-03
    1.83570432e-03 4.72165970e-03 5.90167008e-03 5.03362343e-03
    -2.14563450e-03 -6.18812349e-03 1.11241953e-03 2.67463666e-03
    1.57432059e-05 3.85269313e-03 5.86474221e-03 6.15616702e-03
    5.92419691e-03 9.59991419e-04 -8.53450969e-03 1.12817949e-03
    3.02263326e-03 4.49016970e-03 4.33785561e-03 4.19126218e-03
    6.55304082e-03 6.18270924e-03 -2.81427871e-04 -5.43270400e-03
    -6.95182593e-04 1.04143051e-03 2.01921328e-03 4.01529251e-03
    7.20281247e-03 8.51389207e-03 8.27222224e-03 3.30711668e-03
    -4.49299859e-03 1.63211182e-04 4.30870522e-03 2.57406238e-04
    5.31582814e-03 4.63713473e-03 3.97405401e-03 1.80981250e-03
    -1.24177139e-03 -7.92317267e-04 -1.19206076e-03 1.33830926e-03
    1.36500085e-03 2.69876327e-03 3.73802125e-03 5.12586115e-03
    5.25802374e-03 1.63632401e-04 -4.03382769e-03 -6.26708439e-04
    3.99896875e-03 1.77941623e-03 4.34547057e-03 8.27673706e-04
    -1.28288276e-03 -2.15690350e-03 -2.60117790e-03 -3.61480122e-03
    -2.33570719e-03 1.16569723e-03 -1.31461376e-04 1.13961054e-03
    1.81023055e-03 1.29461254e-03 9.24899126e-04 -1.77951355e-03
    5.41048404e-03 9.47544875e-04 8.05601885e-04 2.99512432e-03
    4.39072866e-03 -1.61111850e-04 2.10308400e-03 7.79930619e-04
    -5.78924315e-04 7.57430564e-04 1.43892656e-03 -5.63900394e-04
    -5.49532087e-05 2.71605415e-04 1.54109148e-03 7.21797522e-04
    4.48718492e-05 -1.42510558e-04 3.66285886e-03 -4.32604458e-03
    -5.13448322e-04 6.84054467e-05 3.70089593e-03 5.98014856e-04
    1.38346176e-03 1.37908457e-04 1.14251848e-03 -1.26602629e-03
    -1.73007138e-03 8.12664948e-05 -1.16362667e-03 1.19017018e-03
    4.33118595e-03 2.08674930e-03 1.14957115e-03 8.95831210e-04
    3.24234879e-03 -1.89618600e-04 -1.41421729e-03 -1.59209652e-03
